{"learner":{"attributes":{"scikit_learn":"{\"_estimator_type\": \"regressor\"}"},"feature_names":["day_of_week","month","year","day","is_weekend","lag_1","lag_7"],"feature_types":["int","int","int","int","int","float","float"],"gradient_booster":{"model":{"gbtree_model_param":{"num_parallel_tree":"1","num_trees":"150"},"iteration_indptr":[0,1,2,3,4,5,6,7,8,9,10,11,12,13,14,15,16,17,18,19,20,21,22,23,24,25,26,27,28,29,30,31,32,33,34,35,36,37,38,39,40,41,42,43,44,45,46,47,48,49,50,51,52,53,54,55,56,57,58,59,60,61,62,63,64,65,66,67,68,69,70,71,72,73,74,75,76,77,78,79,80,81,82,83,84,85,86,87,88,89,90,91,92,93,94,95,96,97,98,99,100,101,102,103,104,105,106,107,108,109,110,111,112,113,114,115,116,117,118,119,120,121,122,123,124,125,126,127,128,129,130,131,132,133,134,135,136,137,138,139,140,141,142,143,144,145,146,147,148,149,150],"tree_info":[0,0,0,0,0,0,0,0,0,0,0,0,0,0,0,0,0,0,0,0,0,0,0,0,0,0,0,0,0,0,0,0,0,0,0,0,0,0,0,0,0,0,0,0,0,0,0,0,0,0,0,0,0,0,0,0,0,0,0,0,0,0,0,0,0,0,0,0,0,0,0,0,0,0,0,0,0,0,0,0,0,0,0,0,0,0,0,0,0,0,0,0,0,0,0,0,0,0,0,0,0,0,0,0,0,0,0,0,0,0,0,0,0,0,0,0,0,0,0,0,0,0,0,0,0,0,0,0,0,0,0,0,0,0,0,0,0,0,0,0,0,0,0,0,0,0,0,0,0,0],"trees":[{"base_weights":[-9.654915E-7,2.7239956E1,-1.18479395E1,3.494427E1,1.9791105E1,-1.8321444E1,-1.4070636E0,2.789069E0,4.160711E0,3.0217226E0,1.7941078E0,-2.1971545E0,-1.4041921E0,-6.1040825E-1,4.2303735E-1],"categories":[],"categories_nodes":[],"categories_segments":[],"categories_sizes":[],"default_left":[0,0,0,0,0,0,0,0,0,0,0,0,0,0,0],"id":0,"left_children":[1,3,5,7,9,11,13,-1,-1,-1,-1,-1,-1,-1,-1],"loss_changes":[1.2244654E6,6.5305E4,1.7867972E5,2.5345812E4,1.0780266E4,2.5184438E4,2.6849195E4,0E0,0E0,0E0,0E0,0E0,0E0,0E0,0E0],"parents":[2147483647,0,0,1,1,2,2,3,3,4,4,5,5,6,6],"right_children":[2,4,6,8,10,12,14,-1,-1,-1,-1,-1,-1,-1,-1],"split_conditions":[2.003E3,2.001E3,9.2E1,1.34E2,1E0,8E1,9.8E1,2.789069E0,4.160711E0,3.0217226E0,1.7941078E0,-2.1971545E0,-1.4041921E0,-6.1040825E-1,4.2303735E-1],"split_indices":[2,2,5,5,0,5,6,0,0,0,0,0,0,0,0],"split_type":[0,0,0,0,0,0,0,0,0,0,0,0,0,0,0],"sum_hessian":[3.792E3,1.149E3,2.643E3,5.63E2,5.86E2,1.631E3,1.012E3,2.76E2,2.87E2,8.6E1,5E2,8.78E2,7.53E2,5.52E2,4.6E2],"tree_param":{"num_deleted":"0","num_feature":"7","num_nodes":"15","size_leaf_vector":"1"}},{"base_weights":[2.100972E-3,2.4526192E1,-1.066458E1,3.1462166E1,1.7820202E1,-1.71156E1,-2.0992305E0,2.151149E0,3.5281613E0,5.2585465E-1,1.9240392E0,-2.2874277E0,-1.4973226E0,7.8083193E-1,-4.6476945E-1],"categories":[],"categories_nodes":[],"categories_segments":[],"categories_sizes":[],"default_left":[0,0,0,0,0,0,0,0,0,0,0,0,0,0,0],"id":1,"left_children":[1,3,5,7,9,11,13,-1,-1,-1,-1,-1,-1,-1,-1],"loss_changes":[9.924749E5,5.2928812E4,1.4605897E5,2.06765E4,1.0370875E4,1.8262031E4,2.8744441E4,0E0,0E0,0E0,0E0,0E0,0E0,0E0,0E0],"parents":[2147483647,0,0,1,1,2,2,3,3,4,4,5,5,6,6],"right_children":[2,4,6,8,10,12,14,-1,-1,-1,-1,-1,-1,-1,-1],"split_conditions":[2.003E3,2.001E3,9E1,1.24E2,9.8E1,7.1E1,2.004E3,2.151149E0,3.5281613E0,5.2585465E-1,1.9240392E0,-2.2874277E0,-1.4973226E0,7.8083193E-1,-4.6476945E-1],"split_indices":[2,2,5,5,5,5,2,0,0,0,0,0,0,0,0],"split_type":[0,0,0,0,0,0,0,0,0,0,0,0,0,0,0],"sum_hessian":[3.792E3,1.149E3,2.643E3,5.63E2,5.86E2,1.507E3,1.136E3,1.58E2,4.05E2,6E1,5.26E2,4.06E2,1.101E3,2.32E2,9.04E2],"tree_param":{"num_deleted":"0","num_feature":"7","num_nodes":"15","size_leaf_vector":"1"}},{"base_weights":[3.1191711E-3,2.208064E1,-9.599435E0,2.832602E1,1.6042353E1,-1.4537416E1,-3.3028373E-1,2.238171E0,3.3944936E0,1.9320421E0,1.1085056E0,-4.4967112E-1,-1.5851282E0,-4.7135192E-1,4.5889926E-1],"categories":[],"categories_nodes":[],"categories_segments":[],"categories_sizes":[],"default_left":[0,0,0,0,0,0,0,0,0,0,0,0,0,0,0],"id":2,"left_children":[1,3,5,7,9,11,13,-1,-1,-1,-1,-1,-1,-1,-1],"loss_changes":[8.043301E5,4.2913688E4,1.21013516E5,1.8078156E4,9.324781E3,2.2685156E4,1.9858988E4,0E0,0E0,0E0,0E0,0E0,0E0,0E0,0E0],"parents":[2147483647,0,0,1,1,2,2,3,3,4,4,5,5,6,6],"right_children":[2,4,6,8,10,12,14,-1,-1,-1,-1,-1,-1,-1,-1],"split_conditions":[2.003E3,2.001E3,9.4E1,1.34E2,1.9E1,2.005E3,9.8E1,2.238171E0,3.3944936E0,1.9320421E0,1.1085056E0,-4.4967112E-1,-1.5851282E0,-4.7135192E-1,4.5889926E-1],"split_indices":[2,2,5,5,3,2,6,0,0,0,0,0,0,0,0],"split_type":[0,0,0,0,0,0,0,0,0,0,0,0,0,0,0],"sum_hessian":[3.792E3,1.149E3,2.643E3,5.63E2,5.86E2,1.724E3,9.19E2,2.76E2,2.87E2,3.51E2,2.35E2,2E2,1.524E3,4.86E2,4.33E2],"tree_param":{"num_deleted":"0","num_feature":"7","num_nodes":"15","size_leaf_vector":"1"}},{"base_weights":[4.553616E-3,1.6739256E1,-1.0266897E1,9.582338E0,2.4217588E1,-1.5671801E1,-5.0696344E0,-6.0005218E-2,1.2464856E0,2.844445E0,1.8070719E0,-1.2366232E0,-1.8343632E0,-8.1716603E-1,2.6861701E-2],"categories":[],"categories_nodes":[],"categories_segments":[],"categories_sizes":[],"default_left":[0,0,0,0,0,0,0,0,0,0,0,0,0,0,0],"id":3,"left_children":[1,3,5,7,9,11,13,-1,-1,-1,-1,-1,-1,-1,-1],"loss_changes":[6.5214944E5,7.6999875E4,6.59618E4,2.1697797E4,1.7803281E4,9.947531E3,1.9873465E4,0E0,0E0,0E0,0E0,0E0,0E0,0E0,0E0],"parents":[2147483647,0,0,1,1,2,2,3,3,4,4,5,5,6,6],"right_children":[2,4,6,8,10,12,14,-1,-1,-1,-1,-1,-1,-1,-1],"split_conditions":[2.004E3,1.23E2,8.5E1,9.7E1,2.001E3,1.7E1,9.6E1,-6.0005218E-2,1.2464856E0,2.844445E0,1.8070719E0,-1.2366232E0,-1.8343632E0,-8.1716603E-1,2.6861701E-2],"split_indices":[2,5,5,5,2,3,6,0,0,0,0,0,0,0,0],"split_type":[0,0,0,0,0,0,0,0,0,0,0,0,0,0,0],"sum_hessian":[3.792E3,1.442E3,2.35E3,7.38E2,7.04E2,1.151E3,1.199E3,1.63E2,5.75E2,4.15E2,2.89E2,5.17E2,6.34E2,7.58E2,4.41E2],"tree_param":{"num_deleted":"0","num_feature":"7","num_nodes":"15","size_leaf_vector":"1"}},{"base_weights":[4.6208585E-3,1.80102E1,-7.826854E0,1.5104405E1,2.7610268E1,-1.1859971E1,-2.562539E-1,1.333714E0,2.5547318E0,2.5449402E0,3.9182918E0,-1.3653436E0,-6.0373086E-1,-2.231946E-1,7.767332E-1],"categories":[],"categories_nodes":[],"categories_segments":[],"categories_sizes":[],"default_left":[0,0,0,0,0,0,0,0,0,0,0,0,0,0,0],"id":4,"left_children":[1,3,5,7,9,11,13,-1,-1,-1,-1,-1,-1,-1,-1],"loss_changes":[5.349929E5,3.1663156E4,8.07265E4,1.5992297E4,5.6546562E3,1.7931312E4,1.46013E4,0E0,0E0,0E0,0E0,0E0,0E0,0E0,0E0],"parents":[2147483647,0,0,1,1,2,2,3,3,4,4,5,5,6,6],"right_children":[2,4,6,8,10,12,14,-1,-1,-1,-1,-1,-1,-1,-1],"split_conditions":[2.003E3,1.42E2,9.4E1,6E0,1.6E2,9.4E1,1.15E2,1.333714E0,2.5547318E0,2.5449402E0,3.9182918E0,-1.3653436E0,-6.0373086E-1,-2.231946E-1,7.767332E-1],"split_indices":[2,5,5,0,6,6,5,0,0,0,0,0,0,0,0],"split_type":[0,0,0,0,0,0,0,0,0,0,0,0,0,0,0],"sum_hessian":[3.792E3,1.149E3,2.643E3,8.84E2,2.65E2,1.724E3,9.19E2,7.58E2,1.26E2,2.26E2,3.9E1,1.317E3,4.07E2,7.38E2,1.81E2],"tree_param":{"num_deleted":"0","num_feature":"7","num_nodes":"15","size_leaf_vector":"1"}},{"base_weights":[6.51389E-3,1.3667315E1,-8.378234E0,1.8822126E1,6.1181827E0,-1.31966505E1,-4.2805386E0,2.1854453E0,1.259453E0,-4.4208296E-2,9.6929646E-1,-1.4284246E0,-6.806969E-1,-8.3308583E-1,-8.952132E-2],"categories":[],"categories_nodes":[],"categories_segments":[],"categories_sizes":[],"default_left":[0,0,0,0,0,0,0,0,0,0,0,0,0,0,0],"id":5,"left_children":[1,3,5,7,9,11,13,-1,-1,-1,-1,-1,-1,-1,-1],"loss_changes":[4.345737E5,5.603828E4,4.6362625E4,1.5908406E4,1.3770328E4,7.4080938E3,1.7433764E4,0E0,0E0,0E0,0E0,0E0,0E0,0E0,0E0],"parents":[2147483647,0,0,1,1,2,2,3,3,4,4,5,5,6,6],"right_children":[2,4,6,8,10,12,14,-1,-1,-1,-1,-1,-1,-1,-1],"split_conditions":[2.004E3,2.002E3,8.4E1,2.1E1,1.03E2,6E0,8.8E1,2.1854453E0,1.259453E0,-4.4208296E-2,9.6929646E-1,-1.4284246E0,-6.806969E-1,-8.3308583E-1,-8.952132E-2],"split_indices":[2,2,5,3,5,0,6,0,0,0,0,0,0,0,0],"split_type":[0,0,0,0,0,0,0,0,0,0,0,0,0,0,0],"sum_hessian":[3.792E3,1.442E3,2.35E3,8.56E2,5.86E2,1.079E3,1.271E3,5.74E2,2.82E2,2.07E2,3.79E2,9.21E2,1.58E2,5.78E2,6.93E2],"tree_param":{"num_deleted":"0","num_feature":"7","num_nodes":"15","size_leaf_vector":"1"}},{"base_weights":[6.2136096E-3,1.4631485E1,-6.3550076E0,1.1996114E1,2.2587976E1,-1.0958087E1,-1.7296777E0,1.0372524E0,2.144916E0,2.0820007E0,3.4238098E0,-7.9626465E-1,-1.3494763E0,3.1620955E-1,-4.5379075E-1],"categories":[],"categories_nodes":[],"categories_segments":[],"categories_sizes":[],"default_left":[0,0,0,0,0,0,0,0,0,0,0,0,0,0,0],"id":6,"left_children":[1,3,5,7,9,11,13,-1,-1,-1,-1,-1,-1,-1,-1],"loss_changes":[3.5297316E5,2.3842578E4,5.627382E4,1.3068773E4,5.157328E3,9.9605E3,1.8147486E4,0E0,0E0,0E0,0E0,0E0,0E0,0E0,0E0],"parents":[2147483647,0,0,1,1,2,2,3,3,4,4,5,5,6,6],"right_children":[2,4,6,8,10,12,14,-1,-1,-1,-1,-1,-1,-1,-1],"split_conditions":[2.003E3,1.4E2,8.7E1,6E0,1.62E2,1.7E1,2.005E3,1.0372524E0,2.144916E0,2.0820007E0,3.4238098E0,-7.9626465E-1,-1.3494763E0,3.1620955E-1,-4.5379075E-1],"split_indices":[2,5,5,0,6,3,2,0,0,0,0,0,0,0,0],"split_type":[0,0,0,0,0,0,0,0,0,0,0,0,0,0,0],"sum_hessian":[3.792E3,1.149E3,2.643E3,8.65E2,2.84E2,1.324E3,1.319E3,7.4E2,1.25E2,2.49E2,3.5E1,6.09E2,7.15E2,4.81E2,8.38E2],"tree_param":{"num_deleted":"0","num_feature":"7","num_nodes":"15","size_leaf_vector":"1"}},{"base_weights":[7.2808904E-3,-6.8060737E0,1.1170185E1,3.093221E-1,-8.732847E0,1.6190262E1,4.990477E0,4.8847374E-1,-3.8513184E-1,-1.1779879E0,-6.357486E-1,1.290878E0,2.0950105E0,-9.477966E-2,7.83269E-1],"categories":[],"categories_nodes":[],"categories_segments":[],"categories_sizes":[],"default_left":[0,0,0,0,0,0,0,0,0,0,0,0,0,0,0],"id":7,"left_children":[1,3,5,7,9,11,13,-1,-1,-1,-1,-1,-1,-1,-1],"loss_changes":[2.8855956E5,3.2302883E4,4.4529734E4,9.594252E3,1.3344E4,1.2115703E4,1.0910506E4,0E0,0E0,0E0,0E0,0E0,0E0,0E0,0E0],"parents":[2147483647,0,0,1,1,2,2,3,3,4,4,5,5,6,6],"right_children":[2,4,6,8,10,12,14,-1,-1,-1,-1,-1,-1,-1,-1],"split_conditions":[1.05E2,2.005E3,2.002E3,1.8E1,8E1,1.34E2,9.8E1,4.8847374E-1,-3.8513184E-1,-1.1779879E0,-6.357486E-1,1.290878E0,2.0950105E0,-9.477966E-2,7.83269E-1],"split_indices":[5,2,2,3,5,6,6,0,0,0,0,0,0,0,0],"split_type":[0,0,0,0,0,0,0,0,0,0,0,0,0,0,0],"sum_hessian":[3.792E3,2.355E3,1.437E3,5.02E2,1.853E3,7.92E2,6.45E2,2.39E2,2.63E2,8.1E2,1.043E3,4.71E2,3.21E2,2.09E2,4.36E2],"tree_param":{"num_deleted":"0","num_feature":"7","num_nodes":"15","size_leaf_vector":"1"}},{"base_weights":[7.175881E-3,1.007792E1,-6.1740623E0,3.243661E0,1.3676033E1,-9.756936E0,-3.1271455E0,1.23126306E-1,1.237521E0,1.7505169E0,9.496274E-1,-1.6003307E0,-8.685034E-1,-6.5008056E-1,-3.0801568E-2],"categories":[],"categories_nodes":[],"categories_segments":[],"categories_sizes":[],"default_left":[0,0,0,0,0,0,0,0,0,0,0,0,0,0,0],"id":8,"left_children":[1,3,5,7,9,11,13,-1,-1,-1,-1,-1,-1,-1,-1],"loss_changes":[2.361752E5,3.5439625E4,2.5634695E4,9.154542E3,1.4958359E4,7.092133E3,1.2095717E4,0E0,0E0,0E0,0E0,0E0,0E0,0E0,0E0],"parents":[2147483647,0,0,1,1,2,2,3,3,4,4,5,5,6,6],"right_children":[2,4,6,8,10,12,14,-1,-1,-1,-1,-1,-1,-1,-1],"split_conditions":[2.004E3,1.14E2,8.4E1,6E0,2.001E3,6.3E1,8.8E1,1.23126306E-1,1.237521E0,1.7505169E0,9.496274E-1,-1.6003307E0,-8.685034E-1,-6.5008056E-1,-3.0801568E-2],"split_indices":[2,5,5,0,2,5,6,0,0,0,0,0,0,0,0],"split_type":[0,0,0,0,0,0,0,0,0,0,0,0,0,0,0],"sum_hessian":[3.792E3,1.442E3,2.35E3,4.98E2,9.44E2,1.079E3,1.271E3,4.09E2,8.9E1,4.91E2,4.53E2,1.56E2,9.23E2,5.78E2,6.93E2],"tree_param":{"num_deleted":"0","num_feature":"7","num_nodes":"15","size_leaf_vector":"1"}},{"base_weights":[6.69677E-3,-5.5785146E0,9.157428E0,-1.1627259E0,-7.6928167E0,1.5013895E1,5.639879E0,2.2460417E-1,-3.9160022E-1,-9.5420665E-1,-3.0466887E-1,1.765012E0,9.0871745E-1,3.5182044E-3,7.6548076E-1],"categories":[],"categories_nodes":[],"categories_segments":[],"categories_sizes":[],"default_left":[0,0,0,0,0,0,0,0,0,0,0,0,0,0,0],"id":9,"left_children":[1,3,5,7,9,11,13,-1,-1,-1,-1,-1,-1,-1,-1],"loss_changes":[1.9390662E5,2.1987406E4,2.953871E4,7.179149E3,1.365775E4,8.261039E3,1.0163488E4,0E0,0E0,0E0,0E0,0E0,0E0,0E0,0E0],"parents":[2147483647,0,0,1,1,2,2,3,3,4,4,5,5,6,6],"right_children":[2,4,6,8,10,12,14,-1,-1,-1,-1,-1,-1,-1,-1],"split_conditions":[1.05E2,2.006E3,2.001E3,1.6E1,2.01E3,2.1E1,9.9E1,2.2460417E-1,-3.9160022E-1,-9.5420665E-1,-3.0466887E-1,1.765012E0,9.0871745E-1,3.5182044E-3,7.6548076E-1],"split_indices":[5,2,2,3,2,3,6,0,0,0,0,0,0,0,0],"split_type":[0,0,0,0,0,0,0,0,0,0,0,0,0,0,0],"sum_hessian":[3.792E3,2.355E3,1.437E3,7.63E2,1.592E3,5.38E2,8.99E2,3.41E2,4.22E2,1.138E3,4.54E2,3.71E2,1.67E2,2.38E2,6.61E2],"tree_param":{"num_deleted":"0","num_feature":"7","num_nodes":"15","size_leaf_vector":"1"}},{"base_weights":[6.560171E-3,9.848038E0,-4.273964E0,1.8615545E1,8.391609E0,-6.3471966E0,7.8004223E-1,1.5182606E0,2.950857E0,6.6102564E-1,1.8221954E0,-7.449541E-1,-1.4609607E-3,-2.8911037E-2,8.2009584E-1],"categories":[],"categories_nodes":[],"categories_segments":[],"categories_sizes":[],"default_left":[0,0,0,0,0,0,0,0,0,0,0,0,0,0,0],"id":10,"left_children":[1,3,5,7,9,11,13,-1,-1,-1,-1,-1,-1,-1,-1],"loss_changes":[1.5982861E5,1.452843E4,2.7709125E4,5.647383E3,1.7180734E4,1.3088695E4,6.111621E3,0E0,0E0,0E0,0E0,0E0,0E0,0E0,0E0],"parents":[2147483647,0,0,1,1,2,2,3,3,4,4,5,5,6,6],"right_children":[2,4,6,8,10,12,14,-1,-1,-1,-1,-1,-1,-1,-1],"split_conditions":[2.003E3,1E0,9.7E1,1.49E2,6E0,6E0,1.22E2,1.5182606E0,2.950857E0,6.6102564E-1,1.8221954E0,-7.449541E-1,-1.4609607E-3,-2.8911037E-2,8.2009584E-1],"split_indices":[2,0,5,5,0,0,5,0,0,0,0,0,0,0,0],"split_type":[0,0,0,0,0,0,0,0,0,0,0,0,0,0,0],"sum_hessian":[3.792E3,1.149E3,2.643E3,1.62E2,9.87E2,1.874E3,7.69E2,1.25E2,3.7E1,8.37E2,1.5E2,1.596E3,2.78E2,6.73E2,9.6E1],"tree_param":{"num_deleted":"0","num_feature":"7","num_nodes":"15","size_leaf_vector":"1"}},{"base_weights":[7.7491496E-3,-3.8615363E0,9.0383415E0,-6.2856455E0,1.9797586E-1,6.44518E0,1.4073607E1,6.603694E-1,-6.78892E-1,3.3136663E-1,-2.3438334E-1,2.1607444E0,5.6981367E-1,1.2156217E0,2.1993468E0],"categories":[],"categories_nodes":[],"categories_segments":[],"categories_sizes":[],"default_left":[0,0,0,0,0,0,0,0,0,0,0,0,0,0,0],"id":11,"left_children":[1,3,5,7,9,11,13,-1,-1,-1,-1,-1,-1,-1,-1],"loss_changes":[1.3256967E5,2.6138148E4,1.4768445E4,1.0832508E4,7.87974E3,8.406018E3,5.5942344E3,0E0,0E0,0E0,0E0,0E0,0E0,0E0,0E0],"parents":[2147483647,0,0,1,1,2,2,3,3,4,4,5,5,6,6],"right_children":[2,4,6,8,10,12,14,-1,-1,-1,-1,-1,-1,-1,-1],"split_conditions":[1.12E2,9.4E1,1.32E2,2E0,1.7E1,2E0,1.57E2,6.603694E-1,-6.78892E-1,3.3136663E-1,-2.3438334E-1,2.1607444E0,5.6981367E-1,1.2156217E0,2.1993468E0],"split_indices":[5,6,6,3,3,3,5,0,0,0,0,0,0,0,0],"split_type":[0,0,0,0,0,0,0,0,0,0,0,0,0,0,0],"sum_hessian":[3.792E3,2.655E3,1.137E3,1.662E3,9.93E2,7.52E2,3.85E2,6.2E1,1.6E3,4.46E2,5.47E2,3.4E1,7.18E2,3.12E2,7.3E1],"tree_param":{"num_deleted":"0","num_feature":"7","num_nodes":"15","size_leaf_vector":"1"}},{"base_weights":[8.615312E-3,5.855267E0,-4.965321E0,1.858464E0,9.416562E0,-6.560675E0,-8.81235E-1,4.3687525E-1,-2.0608628E-1,8.5280734E-1,1.9945799E0,-4.2468358E-2,-7.6138943E-1,-6.8812466E-1,2.1055095E-1],"categories":[],"categories_nodes":[],"categories_segments":[],"categories_sizes":[],"default_left":[0,0,0,0,0,0,0,0,0,0,0,0,0,0,0],"id":12,"left_children":[1,3,5,7,9,11,13,-1,-1,-1,-1,-1,-1,-1,-1],"loss_changes":[1.1033283E5,2.480623E4,1.3351121E4,8.106204E3,8.4553125E3,9.522555E3,1.0354618E4,0E0,0E0,0E0,0E0,0E0,0E0,0E0,0E0],"parents":[2147483647,0,0,1,1,2,2,3,3,4,4,5,5,6,6],"right_children":[2,4,6,8,10,12,14,-1,-1,-1,-1,-1,-1,-1,-1],"split_conditions":[2.005E3,1.16E2,2.01E3,2.1E1,1.63E2,1E0,5E0,4.3687525E-1,-2.0608628E-1,8.5280734E-1,1.9945799E0,-4.2468358E-2,-7.6138943E-1,-6.8812466E-1,2.1055095E-1],"split_indices":[2,5,2,3,5,0,1,0,0,0,0,0,0,0,0],"split_type":[0,0,0,0,0,0,0,0,0,0,0,0,0,0,0],"sum_hessian":[3.792E3,1.743E3,2.049E3,8.22E2,9.21E2,1.473E3,5.76E2,5.01E2,3.21E2,8.51E2,7E1,2.16E2,1.257E3,1.91E2,3.85E2],"tree_param":{"num_deleted":"0","num_feature":"7","num_nodes":"15","size_leaf_vector":"1"}},{"base_weights":[8.228098E-3,7.415109E0,-3.213376E0,9.60087E0,3.0299683E0,-5.5509934E0,-4.3842193E-1,8.7827456E-1,2.3514156E0,1.3810321E0,1.2998818E-1,-3.991808E-1,-8.65452E-1,2.3876965E-1,-3.647561E-1],"categories":[],"categories_nodes":[],"categories_segments":[],"categories_sizes":[],"default_left":[0,0,0,0,0,0,0,0,0,0,0,0,0,0,0],"id":13,"left_children":[1,3,5,7,9,11,13,-1,-1,-1,-1,-1,-1,-1,-1],"loss_changes":[9.053253E4,1.0993516E4,1.7148615E4,8.524094E3,7.1440107E3,6.909379E3,1.0982692E4,0E0,0E0,0E0,0E0,0E0,0E0,0E0,0E0],"parents":[2147483647,0,0,1,1,2,2,3,3,4,4,5,5,6,6],"right_children":[2,4,6,8,10,12,14,-1,-1,-1,-1,-1,-1,-1,-1],"split_conditions":[2.003E3,2.1E1,8.9E1,1.61E2,1E0,2.1E1,1.8E1,8.7827456E-1,2.3514156E0,1.3810321E0,1.2998818E-1,-3.991808E-1,-8.65452E-1,2.3876965E-1,-3.647561E-1],"split_indices":[2,3,6,6,0,3,3,0,0,0,0,0,0,0,0],"split_type":[0,0,0,0,0,0,0,0,0,0,0,0,0,0,0],"sum_hessian":[3.792E3,1.149E3,2.643E3,7.66E2,3.83E2,1.434E3,1.209E3,7.25E2,4.1E1,5.2E1,3.31E2,9.56E2,4.78E2,6.43E2,5.66E2],"tree_param":{"num_deleted":"0","num_feature":"7","num_nodes":"15","size_leaf_vector":"1"}},{"base_weights":[8.287761E-3,4.8384476E0,-4.1008863E0,8.132835E0,1.6536179E0,-5.494774E0,-5.3296393E-1,1.5899147E0,6.8590003E-1,4.2104465E-1,-1.7131846E-1,-6.049657E-3,-6.4277977E-1,-4.8756966E-1,2.6411673E-1],"categories":[],"categories_nodes":[],"categories_segments":[],"categories_sizes":[],"default_left":[0,0,0,0,0,0,0,0,0,0,0,0,0,0,0],"id":14,"left_children":[1,3,5,7,9,11,13,-1,-1,-1,-1,-1,-1,-1,-1],"loss_changes":[7.530319E4,1.8284707E4,1.0192301E4,8.36925E3,7.651416E3,7.473246E3,7.9664785E3,0E0,0E0,0E0,0E0,0E0,0E0,0E0,0E0],"parents":[2147483647,0,0,1,1,2,2,3,3,4,4,5,5,6,6],"right_children":[2,4,6,8,10,12,14,-1,-1,-1,-1,-1,-1,-1,-1],"split_conditions":[2.005E3,2.002E3,2.01E3,1E0,1.8E1,1E0,6E0,1.5899147E0,6.8590003E-1,4.2104465E-1,-1.7131846E-1,-6.049657E-3,-6.4277977E-1,-4.8756966E-1,2.6411673E-1],"split_indices":[2,2,2,0,3,0,1,0,0,0,0,0,0,0,0],"split_type":[0,0,0,0,0,0,0,0,0,0,0,0,0,0,0],"sum_hessian":[3.792E3,1.743E3,2.049E3,8.56E2,8.87E2,1.473E3,5.76E2,1.19E2,7.37E2,5.04E2,3.83E2,2.16E2,1.257E3,2.43E2,3.33E2],"tree_param":{"num_deleted":"0","num_feature":"7","num_nodes":"15","size_leaf_vector":"1"}},{"base_weights":[7.89467E-3,-3.4401975E0,4.777173E0,-4.460205E0,2.1981297E0,2.6084905E0,9.069041E0,-9.399403E-1,-3.3607632E-1,7.0347226E-1,7.442893E-2,1.5535715E0,2.085797E-1,7.6285946E-1,1.5399717E0],"categories":[],"categories_nodes":[],"categories_segments":[],"categories_sizes":[],"default_left":[0,0,0,0,0,0,0,0,0,0,0,0,0,0,0],"id":15,"left_children":[1,3,5,7,9,11,13,-1,-1,-1,-1,-1,-1,-1,-1],"loss_changes":[6.239198E4,1.2673811E4,1.4794199E4,1.0096031E4,2.371456E3,7.1232334E3,4.7520703E3,0E0,0E0,0E0,0E0,0E0,0E0,0E0,0E0],"parents":[2147483647,0,0,1,1,2,2,3,3,4,4,5,5,6,6],"right_children":[2,4,6,8,10,12,14,-1,-1,-1,-1,-1,-1,-1,-1],"split_conditions":[1.02E2,6E0,1.27E2,7.1E1,2.005E3,2E0,6E0,-9.399403E-1,-3.3607632E-1,7.0347226E-1,7.442893E-2,1.5535715E0,2.085797E-1,7.6285946E-1,1.5399717E0],"split_indices":[5,0,6,5,2,3,0,0,0,0,0,0,0,0,0],"split_type":[0,0,0,0,0,0,0,0,0,0,0,0,0,0,0],"sum_hessian":[3.792E3,2.201E3,1.591E3,1.864E3,3.37E2,1.058E3,5.33E2,3.38E2,1.526E3,7.7E1,2.6E2,4E1,1.018E3,4.36E2,9.7E1],"tree_param":{"num_deleted":"0","num_feature":"7","num_nodes":"15","size_leaf_vector":"1"}},{"base_weights":[8.04428E-3,4.0100846E0,-3.3966224E0,8.010396E0,2.0962954E0,-5.737306E0,-1.7702221E0,1.0379975E0,3.1389952E-1,8.611273E-1,1.0148235E-1,-5.8645662E-2,-6.5949667E-1,-3.3689502E-1,2.4377225E-1],"categories":[],"categories_nodes":[],"categories_segments":[],"categories_sizes":[],"default_left":[0,0,0,0,0,0,0,0,0,0,0,0,0,0,0],"id":16,"left_children":[1,3,5,7,9,11,13,-1,-1,-1,-1,-1,-1,-1,-1],"loss_changes":[5.1695574E4,1.3334842E4,7.793965E3,6.4777617E3,8.312309E3,3.7069844E3,8.155044E3,0E0,0E0,0E0,0E0,0E0,0E0,0E0,0E0],"parents":[2147483647,0,0,1,1,2,2,3,3,4,4,5,5,6,6],"right_children":[2,4,6,8,10,12,14,-1,-1,-1,-1,-1,-1,-1,-1],"split_conditions":[2.005E3,2.001E3,6E0,2.1E1,1E0,1E0,2.01E3,1.0379975E0,3.1389952E-1,8.611273E-1,1.0148235E-1,-5.8645662E-2,-6.5949667E-1,-3.3689502E-1,2.4377225E-1],"split_indices":[2,2,1,3,0,0,2,0,0,0,0,0,0,0,0],"split_type":[0,0,0,0,0,0,0,0,0,0,0,0,0,0,0],"sum_hessian":[3.792E3,1.743E3,2.049E3,5.63E2,1.18E3,8.39E2,1.21E3,3.78E2,1.85E2,1.67E2,1.013E3,1.2E2,7.19E2,8.77E2,3.33E2],"tree_param":{"num_deleted":"0","num_feature":"7","num_nodes":"15","size_leaf_vector":"1"}},{"base_weights":[7.638812E-3,-2.197116E0,5.1533513E0,-3.1079555E0,3.008959E0,4.2114244E0,1.2552839E1,-9.76253E-1,-2.4645391E-1,2.3898123E-1,1.5168353E0,1.0126106E0,2.7129018E-1,-4.1028196E-1,1.3999106E0],"categories":[],"categories_nodes":[],"categories_segments":[],"categories_sizes":[],"default_left":[0,0,0,0,0,0,0,0,0,0,0,0,0,0,0],"id":17,"left_children":[1,3,5,7,9,11,13,-1,-1,-1,-1,-1,-1,-1,-1],"loss_changes":[4.304303E4,1.2603837E4,7.8787383E3,9.656779E3,2.9450159E3,8.933311E3,3.1407656E3,0E0,0E0,0E0,0E0,0E0,0E0,0E0,0E0],"parents":[2147483647,0,0,1,1,2,2,3,3,4,4,5,5,6,6],"right_children":[2,4,6,8,10,12,14,-1,-1,-1,-1,-1,-1,-1,-1],"split_conditions":[1.12E2,6E0,6E0,6.6E1,1.33E2,1E0,1.05E2,-9.76253E-1,-2.4645391E-1,2.3898123E-1,1.5168353E0,1.0126106E0,2.7129018E-1,-4.1028196E-1,1.3999106E0],"split_indices":[5,0,0,5,6,0,6,0,0,0,0,0,0,0,0],"split_type":[0,0,0,0,0,0,0,0,0,0,0,0,0,0,0],"sum_hessian":[3.792E3,2.655E3,1.137E3,2.26E3,3.95E2,1.01E3,1.27E2,1.98E2,2.062E3,3.77E2,1.8E1,2.03E2,8.07E2,1E1,1.17E2],"tree_param":{"num_deleted":"0","num_feature":"7","num_nodes":"15","size_leaf_vector":"1"}},{"base_weights":[7.6132244E-3,3.3641255E0,-2.847882E0,2.086591E0,8.102628E0,-1.1990657E0,-4.9243956E0,1.0702504E-1,7.783703E-1,7.192028E-1,1.8562024E0,7.313542E-1,-1.7102882E-1,-1.051022E0,-3.942493E-1],"categories":[],"categories_nodes":[],"categories_segments":[],"categories_sizes":[],"default_left":[0,0,0,0,0,0,0,0,0,0,0,0,0,0,0],"id":18,"left_children":[1,3,5,7,9,11,13,-1,-1,-1,-1,-1,-1,-1,-1],"loss_changes":[3.636361E4,1.054057E4,7.012865E3,7.953205E3,3.3905E3,4.991009E3,4.933217E3,0E0,0E0,0E0,0E0,0E0,0E0,0E0,0E0],"parents":[2147483647,0,0,1,1,2,2,3,3,4,4,5,5,6,6],"right_children":[2,4,6,8,10,12,14,-1,-1,-1,-1,-1,-1,-1,-1],"split_conditions":[2.005E3,1.36E2,1.8E1,6E0,6E0,2E0,6.5E1,1.0702504E-1,7.783703E-1,7.192028E-1,1.8562024E0,7.313542E-1,-1.7102882E-1,-1.051022E0,-3.942493E-1],"split_indices":[2,5,3,0,0,3,5,0,0,0,0,0,0,0,0],"split_type":[0,0,0,0,0,0,0,0,0,0,0,0,0,0,0],"sum_hessian":[3.792E3,1.743E3,2.049E3,1.374E3,3.69E2,1.143E3,9.06E2,1.167E3,2.07E2,3.41E2,2.8E1,6.4E1,1.079E3,1.34E2,7.72E2],"tree_param":{"num_deleted":"0","num_feature":"7","num_nodes":"15","size_leaf_vector":"1"}},{"base_weights":[7.530514E-3,5.282981E0,-1.5318187E0,1.151472E1,4.2625318E0,1.8499105E-1,-3.7238889E0,8.795374E-1,1.8134378E0,3.0038458E-1,1.1270868E0,-1.9077049E-1,2.4492024E-1,2.6136792E-1,-4.7340986E-1],"categories":[],"categories_nodes":[],"categories_segments":[],"categories_sizes":[],"default_left":[0,0,0,0,0,0,0,0,0,0,0,0,0,0,0],"id":19,"left_children":[1,3,5,7,9,11,13,-1,-1,-1,-1,-1,-1,-1,-1],"loss_changes":[3.0810139E4,5.4007324E3,1.1053699E4,2.0006387E3,6.476257E3,7.8134004E3,8.271305E3,0E0,0E0,0E0,0E0,0E0,0E0,0E0,0E0],"parents":[2147483647,0,0,1,1,2,2,3,3,4,4,5,5,6,6],"right_children":[2,4,6,8,10,12,14,-1,-1,-1,-1,-1,-1,-1,-1],"split_conditions":[2.002E3,1E0,1.8E1,1.49E2,6E0,8.9E1,1E0,8.795374E-1,1.8134378E0,3.0038458E-1,1.1270868E0,-1.9077049E-1,2.4492024E-1,2.6136792E-1,-4.7340986E-1],"split_indices":[2,0,3,5,0,6,0,0,0,0,0,0,0,0,0],"split_type":[0,0,0,0,0,0,0,0,0,0,0,0,0,0,0],"sum_hessian":[3.792E3,8.56E2,2.936E3,1.19E2,7.37E2,1.647E3,1.289E3,8.6E1,3.3E1,6.26E2,1.11E2,8.56E2,7.91E2,1.77E2,1.112E3],"tree_param":{"num_deleted":"0","num_feature":"7","num_nodes":"15","size_leaf_vector":"1"}},{"base_weights":[7.823527E-3,-2.5733466E0,2.7115707E0,-3.4066288E0,2.1440816E0,5.897882E0,1.3620931E0,7.655305E-1,-3.7928745E-1,3.4584215E-1,-4.4445515E-1,7.822625E-1,1.717733E-1,7.21171E-2,5.936174E-1],"categories":[],"categories_nodes":[],"categories_segments":[],"categories_sizes":[],"default_left":[0,0,0,0,0,0,0,0,0,0,0,0,0,0,0],"id":20,"left_children":[1,3,5,7,9,11,13,-1,-1,-1,-1,-1,-1,-1,-1],"loss_changes":[2.6477686E4,7.6372783E3,7.9595996E3,7.0788613E3,2.5440044E3,4.419748E3,3.8156326E3,0E0,0E0,0E0,0E0,0E0,0E0,0E0,0E0],"parents":[2147483647,0,0,1,1,2,2,3,3,4,4,5,5,6,6],"right_children":[2,4,6,8,10,12,14,-1,-1,-1,-1,-1,-1,-1,-1],"split_conditions":[9.7E1,6E0,2.001E3,2E0,1.1E1,2.1E1,6E0,7.655305E-1,-3.7928745E-1,3.4584215E-1,-4.4445515E-1,7.822625E-1,1.717733E-1,7.21171E-2,5.936174E-1],"split_indices":[5,0,2,3,1,3,0,0,0,0,0,0,0,0,0],"split_type":[0,0,0,0,0,0,0,0,0,0,0,0,0,0,0],"sum_hessian":[3.792E3,1.94E3,1.852E3,1.649E3,2.91E2,5.5E2,1.302E3,5.5E1,1.594E3,2.43E2,4.8E1,3.76E2,1.74E2,1.143E3,1.59E2],"tree_param":{"num_deleted":"0","num_feature":"7","num_nodes":"15","size_leaf_vector":"1"}},{"base_weights":[7.5434456E-3,2.2394714E0,-2.585567E0,7.6540103E0,1.3589114E0,-4.0482035E0,4.0755948E-1,5.738501E-1,1.3138251E0,3.9160367E-2,6.474878E-1,-9.872957E-3,-4.7365093E-1,-3.4290183E-1,2.3148532E-1],"categories":[],"categories_nodes":[],"categories_segments":[],"categories_sizes":[],"default_left":[0,0,0,0,0,0,0,0,0,0,0,0,0,0,0],"id":21,"left_children":[1,3,5,7,9,11,13,-1,-1,-1,-1,-1,-1,-1,-1],"loss_changes":[2.1958293E4,9.711198E3,7.684788E3,2.9185645E3,8.682458E3,3.20458E3,4.230124E3,0E0,0E0,0E0,0E0,0E0,0E0,0E0,0E0],"parents":[2147483647,0,0,1,1,2,2,3,3,4,4,5,5,6,6],"right_children":[2,4,6,8,10,12,14,-1,-1,-1,-1,-1,-1,-1,-1],"split_conditions":[2.006E3,1E0,2.01E3,1.37E2,6E0,1E0,5E0,5.738501E-1,1.3138251E0,3.9160367E-2,6.474878E-1,-9.872957E-3,-4.7365093E-1,-3.4290183E-1,2.3148532E-1],"split_indices":[2,0,2,6,0,0,1,0,0,0,0,0,0,0,0],"split_type":[0,0,0,0,0,0,0,0,0,0,0,0,0,0,0],"sum_hessian":[3.792E3,2.038E3,1.754E3,2.84E2,1.754E3,1.178E3,5.76E2,2.12E2,7.2E1,1.476E3,2.78E2,1.75E2,1.003E3,1.91E2,3.85E2],"tree_param":{"num_deleted":"0","num_feature":"7","num_nodes":"15","size_leaf_vector":"1"}},{"base_weights":[7.309899E-3,-1.3230428E0,3.795974E0,-4.2381275E-2,-3.5957954E0,3.2045212E0,1.1373086E1,-2.0398866E-1,1.2948923E-1,-9.20818E-1,-2.851821E-1,1.5247102E0,2.751343E-1,-3.24594E-1,1.410734E0],"categories":[],"categories_nodes":[],"categories_segments":[],"categories_sizes":[],"default_left":[0,0,0,0,0,0,0,0,0,0,0,0,0,0,0],"id":22,"left_children":[1,3,5,7,9,11,13,-1,-1,-1,-1,-1,-1,-1,-1],"loss_changes":[1.9122727E4,8.1728877E3,4.3823203E3,4.802808E3,4.1993154E3,4.9570625E3,2.8838125E3,0E0,0E0,0E0,0E0,0E0,0E0,0E0,0E0],"parents":[2147483647,0,0,1,1,2,2,3,3,4,4,5,5,6,6],"right_children":[2,4,6,8,10,12,14,-1,-1,-1,-1,-1,-1,-1,-1],"split_conditions":[1.16E2,2.1E1,1.63E2,8.4E1,6.5E1,2E0,4E0,-2.0398866E-1,1.2948923E-1,-9.20818E-1,-2.851821E-1,1.5247102E0,2.751343E-1,-3.24594E-1,1.410734E0],"split_indices":[5,3,5,6,5,3,1,0,0,0,0,0,0,0,0],"split_type":[0,0,0,0,0,0,0,0,0,0,0,0,0,0,0],"sum_hessian":[3.792E3,2.807E3,9.85E2,1.796E3,1.011E3,9.15E2,7E1,7.2E2,1.076E3,1.17E2,8.94E2,3.2E1,8.83E2,1.1E1,5.9E1],"tree_param":{"num_deleted":"0","num_feature":"7","num_nodes":"15","size_leaf_vector":"1"}},{"base_weights":[7.002674E-3,3.8007658E0,-1.0999984E0,2.990616E0,9.163007E0,7.731462E0,-1.3883027E0,4.455889E-1,-1.5566289E-2,6.162712E-1,1.753755E0,6.79208E-1,3.3648891E0,-2.0181201E-1,2.4665017E-1],"categories":[],"categories_nodes":[],"categories_segments":[],"categories_sizes":[],"default_left":[0,0,0,0,0,0,0,0,0,0,0,0,0,0,0],"id":23,"left_children":[1,3,5,7,9,11,13,-1,-1,-1,-1,-1,-1,-1,-1],"loss_changes":[1.5933641E4,3.6955928E3,7.48877E3,3.4398696E3,2.706045E3,2.0356655E3,6.912134E3,0E0,0E0,0E0,0E0,0E0,0E0,0E0,0E0],"parents":[2147483647,0,0,1,1,2,2,3,3,4,4,5,5,6,6],"right_children":[2,4,6,8,10,12,14,-1,-1,-1,-1,-1,-1,-1,-1],"split_conditions":[2.002E3,1.54E2,2E0,2.1E1,6E0,1.32E2,6E0,4.455889E-1,-1.5566289E-2,6.162712E-1,1.753755E0,6.79208E-1,3.3648891E0,-2.0181201E-1,2.4665017E-1],"split_indices":[2,6,3,3,0,5,0,0,0,0,0,0,0,0,0],"split_type":[0,0,0,0,0,0,0,0,0,0,0,0,0,0,0],"sum_hessian":[3.792E3,8.56E2,2.936E3,7.45E2,1.11E2,9.2E1,2.844E3,5.08E2,2.37E2,8.3E1,2.8E1,9E1,2E0,2.445E3,3.99E2],"tree_param":{"num_deleted":"0","num_feature":"7","num_nodes":"15","size_leaf_vector":"1"}},{"base_weights":[8.119158E-3,1.7886072E0,-2.0604982E0,6.613094E0,1.0041245E0,-3.332024E0,5.412169E-1,5.5627066E-1,1.3294224E0,2.4168308E-1,-1.7823507E-1,-5.116806E-1,-2.0947793E-1,-2.8167376E-1,2.2100928E-1],"categories":[],"categories_nodes":[],"categories_segments":[],"categories_sizes":[],"default_left":[0,0,0,0,0,0,0,0,0,0,0,0,0,0,0],"id":24,"left_children":[1,3,5,7,9,11,13,-1,-1,-1,-1,-1,-1,-1,-1],"loss_changes":[1.3973867E4,7.7104165E3,5.8076045E3,1.9261133E3,6.9128135E3,2.5927627E3,3.2397383E3,0E0,0E0,0E0,0E0,0E0,0E0,0E0,0E0],"parents":[2147483647,0,0,1,1,2,2,3,3,4,4,5,5,6,6],"right_children":[2,4,6,8,10,12,14,-1,-1,-1,-1,-1,-1,-1,-1],"split_conditions":[2.006E3,1E0,2.01E3,1.49E2,2.1E1,6E0,5E0,5.5627066E-1,1.3294224E0,2.4168308E-1,-1.7823507E-1,-5.116806E-1,-2.0947793E-1,-2.8167376E-1,2.2100928E-1],"split_indices":[2,0,2,5,3,1,1,0,0,0,0,0,0,0,0],"split_type":[0,0,0,0,0,0,0,0,0,0,0,0,0,0,0],"sum_hessian":[3.792E3,2.038E3,1.754E3,2.84E2,1.754E3,1.178E3,5.76E2,2.47E2,3.7E1,1.164E3,5.9E2,4.81E2,6.97E2,1.91E2,3.85E2],"tree_param":{"num_deleted":"0","num_feature":"7","num_nodes":"15","size_leaf_vector":"1"}},{"base_weights":[7.6156445E-3,-1.0121175E0,3.1080742E0,7.8647704E0,-1.330507E0,2.2310207E0,7.2087317E0,5.975867E-1,3.1836665E0,-3.0750213E-2,-3.2118452E-1,6.681258E-1,8.440702E-2,5.7281154E-1,2.0638964E0],"categories":[],"categories_nodes":[],"categories_segments":[],"categories_sizes":[],"default_left":[0,0,0,0,0,0,0,0,0,0,0,0,0,0,0],"id":25,"left_children":[1,3,5,7,9,11,13,-1,-1,-1,-1,-1,-1,-1,-1],"loss_changes":[1.1995249E4,8.079573E3,3.3610273E3,4.292527E3,5.3051855E3,4.7778623E3,3.1628047E3,0E0,0E0,0E0,0E0,0E0,0E0,0E0,0E0],"parents":[2147483647,0,0,1,1,2,2,3,3,4,4,5,5,6,6],"right_children":[2,4,6,8,10,12,14,-1,-1,-1,-1,-1,-1,-1,-1],"split_conditions":[1.17E2,2E0,6E0,1.34E2,2.1E1,1E0,1.47E2,5.975867E-1,3.1836665E0,-3.0750213E-2,-3.2118452E-1,6.681258E-1,8.440702E-2,5.7281154E-1,2.0638964E0],"split_indices":[6,3,0,5,3,0,5,0,0,0,0,0,0,0,0],"split_type":[0,0,0,0,0,0,0,0,0,0,0,0,0,0,0],"sum_hessian":[3.792E3,2.854E3,9.38E2,9.8E1,2.756E3,7.74E2,1.64E2,9.2E1,6E0,1.786E3,9.7E2,1.83E2,5.91E2,1.49E2,1.5E1],"tree_param":{"num_deleted":"0","num_feature":"7","num_nodes":"15","size_leaf_vector":"1"}},{"base_weights":[8.649352E-3,-1.6052235E0,1.6991613E0,-3.19711E-1,-3.615431E0,1.3116138E0,7.7693954E0,2.5220772E-2,-5.8556837E-1,1.5982306E-1,-4.3570334E-1,8.8245773E-1,1.0523828E-1,5.1231724E-1,1.5075158E0],"categories":[],"categories_nodes":[],"categories_segments":[],"categories_sizes":[],"default_left":[0,0,0,0,0,0,0,0,0,0,0,0,0,0,0],"id":26,"left_children":[1,3,5,7,9,11,13,-1,-1,-1,-1,-1,-1,-1,-1],"loss_changes":[1.035106E4,5.014673E3,4.3489976E3,3.7533364E3,2.933877E3,3.3853682E3,2.0686943E3,0E0,0E0,0E0,0E0,0E0,0E0,0E0,0E0],"parents":[2147483647,0,0,1,1,2,2,3,3,4,4,5,5,6,6],"right_children":[2,4,6,8,10,12,14,-1,-1,-1,-1,-1,-1,-1,-1],"split_conditions":[9.7E1,2.1E1,1.54E2,1.2E1,1E0,2E0,6E0,2.5220772E-2,-5.8556837E-1,1.5982306E-1,-4.3570334E-1,8.8245773E-1,1.0523828E-1,5.1231724E-1,1.5075158E0],"split_indices":[5,3,6,1,0,3,0,0,0,0,0,0,0,0,0],"split_type":[0,0,0,0,0,0,0,0,0,0,0,0,0,0,0],"sum_hessian":[3.792E3,1.94E3,1.852E3,1.184E3,7.56E2,1.742E3,1.1E2,1.074E3,1.1E2,9.4E1,6.62E2,5.7E1,1.685E3,8.2E1,2.8E1],"tree_param":{"num_deleted":"0","num_feature":"7","num_nodes":"15","size_leaf_vector":"1"}},{"base_weights":[8.356405E-3,-1.4784267E0,1.6380632E0,6.1583953E0,-1.7733752E0,4.6667075E0,9.8942006E-1,4.5135522E-1,3.3814766E0,-3.1772172E-1,-6.337328E-2,3.3010575E-1,9.2235416E-1,5.4933946E-3,4.8295856E-1],"categories":[],"categories_nodes":[],"categories_segments":[],"categories_sizes":[],"default_left":[0,0,0,0,0,0,0,0,0,0,0,0,0,0,0],"id":27,"left_children":[1,3,5,7,9,11,13,-1,-1,-1,-1,-1,-1,-1,-1],"loss_changes":[9.192938E3,4.479819E3,3.5511445E3,3.2136646E3,3.0553525E3,1.9547026E3,5.353898E3,0E0,0E0,0E0,0E0,0E0,0E0,0E0,0E0],"parents":[2147483647,0,0,1,1,2,2,3,3,4,4,5,5,6,6],"right_children":[2,4,6,8,10,12,14,-1,-1,-1,-1,-1,-1,-1,-1],"split_conditions":[9.8E1,2E0,1E0,1.32E2,6E0,1.37E2,6E0,4.5135522E-1,3.3814766E0,-3.1772172E-1,-6.337328E-2,3.3010575E-1,9.2235416E-1,5.4933946E-3,4.8295856E-1],"split_indices":[6,3,0,5,1,6,0,0,0,0,0,0,0,0,0],"split_type":[0,0,0,0,0,0,0,0,0,0,0,0,0,0,0],"sum_hessian":[3.792E3,1.983E3,1.809E3,7.3E1,1.91E3,3.18E2,1.491E3,7E1,3E0,8.55E2,1.055E3,2.46E2,7.2E1,1.2E3,2.91E2],"tree_param":{"num_deleted":"0","num_feature":"7","num_nodes":"15","size_leaf_vector":"1"}},{"base_weights":[8.888255E-3,1.3628541E0,-1.564186E0,1.9248768E0,-4.27993E0,-2.6579099E0,6.7336106E-1,1.0487131E0,1.6130559E-1,-5.385352E-1,5.109064E-1,6.2175076E-2,-3.230183E-1,-2.1066204E-1,2.0544052E-1],"categories":[],"categories_nodes":[],"categories_segments":[],"categories_sizes":[],"default_left":[0,0,0,0,0,0,0,0,0,0,0,0,0,0,0],"id":28,"left_children":[1,3,5,7,9,11,13,-1,-1,-1,-1,-1,-1,-1,-1],"loss_changes":[8.0808E3,6.474669E3,4.296728E3,4.93573E3,1.9475911E3,2.2148281E3,2.2195906E3,0E0,0E0,0E0,0E0,0E0,0E0,0E0,0E0],"parents":[2147483647,0,0,1,1,2,2,3,3,4,4,5,5,6,6],"right_children":[2,4,6,8,10,12,14,-1,-1,-1,-1,-1,-1,-1,-1],"split_conditions":[2.006E3,1.2E1,2.01E3,2E0,2.9E1,1E0,5E0,1.0487131E0,1.6130559E-1,-5.385352E-1,5.109064E-1,6.2175076E-2,-3.230183E-1,-2.1066204E-1,2.0544052E-1],"split_indices":[2,1,2,3,3,0,1,0,0,0,0,0,0,0,0],"split_type":[0,0,0,0,0,0,0,0,0,0,0,0,0,0,0],"sum_hessian":[3.792E3,2.038E3,1.754E3,1.854E3,1.84E2,1.178E3,5.76E2,6.4E1,1.79E3,1.65E2,1.9E1,1.75E2,1.003E3,1.91E2,3.85E2],"tree_param":{"num_deleted":"0","num_feature":"7","num_nodes":"15","size_leaf_vector":"1"}},{"base_weights":[8.241323E-3,-6.771116E-1,2.808439E0,-1.245974E0,2.6796784E0,1.2561168E1,2.4808125E0,1.822984E-1,-1.8030225E-1,2.3602097E-1,1.4982477E0,2.1876526E0,6.5362066E-1,1.8685016E-1,8.351331E-1],"categories":[],"categories_nodes":[],"categories_segments":[],"categories_sizes":[],"default_left":[0,0,0,0,0,0,0,0,0,0,0,0,0,0,0],"id":29,"left_children":[1,3,5,7,9,11,13,-1,-1,-1,-1,-1,-1,-1,-1],"loss_changes":[7.281137E3,5.8236514E3,2.3524966E3,4.460106E3,1.7018567E3,1.2040022E3,2.5832793E3,0E0,0E0,0E0,0E0,0E0,0E0,0E0,0E0],"parents":[2147483647,0,0,1,1,2,2,3,3,4,4,5,5,6,6],"right_children":[2,4,6,8,10,12,14,-1,-1,-1,-1,-1,-1,-1,-1],"split_conditions":[1.23E2,6E0,2E0,1E0,1.5E2,1E2,1.63E2,1.822984E-1,-1.8030225E-1,2.3602097E-1,1.4982477E0,2.1876526E0,6.5362066E-1,1.8685016E-1,8.351331E-1],"split_indices":[5,0,3,0,6,6,5,0,0,0,0,0,0,0,0],"split_type":[0,0,0,0,0,0,0,0,0,0,0,0,0,0,0],"sum_hessian":[3.792E3,3.047E3,7.45E2,2.606E3,4.41E2,2.3E1,7.22E2,4E2,2.206E3,4.31E2,1E1,8E0,1.5E1,6.55E2,6.7E1],"tree_param":{"num_deleted":"0","num_feature":"7","num_nodes":"15","size_leaf_vector":"1"}},{"base_weights":[8.895721E-3,2.3655257E0,-6.787586E-1,2.8617651E0,-2.2965345E0,4.0735132E-1,-2.065759E0,-1.0290673E-1,3.7062925E-1,-3.5828477E-1,8.677911E-1,-2.781423E-1,9.555219E-2,2.2339328E-1,-2.7515444E-1],"categories":[],"categories_nodes":[],"categories_segments":[],"categories_sizes":[],"default_left":[0,0,0,0,0,0,0,0,0,0,0,0,0,0,0],"id":30,"left_children":[1,3,5,7,9,11,13,-1,-1,-1,-1,-1,-1,-1,-1],"loss_changes":[6.1483394E3,1.9892397E3,4.4252407E3,2.5503984E3,1.202767E3,2.8833486E3,3.8099268E3,0E0,0E0,0E0,0E0,0E0,0E0,0E0,0E0],"parents":[2147483647,0,0,1,1,2,2,3,3,4,4,5,5,6,6],"right_children":[2,4,6,8,10,12,14,-1,-1,-1,-1,-1,-1,-1,-1],"split_conditions":[2.002E3,1.2E1,1.8E1,3E0,2.9E1,7.1E1,1E0,-1.0290673E-1,3.7062925E-1,-3.5828477E-1,8.677911E-1,-2.781423E-1,9.555219E-2,2.2339328E-1,-2.7515444E-1],"split_indices":[2,1,3,1,3,6,0,0,0,0,0,0,0,0,0],"split_type":[0,0,0,0,0,0,0,0,0,0,0,0,0,0,0],"sum_hessian":[3.792E3,8.56E2,2.936E3,7.74E2,8.2E1,1.647E3,1.289E3,1.38E2,6.36E2,7.4E1,8E0,2.41E2,1.406E3,1.77E2,1.112E3],"tree_param":{"num_deleted":"0","num_feature":"7","num_nodes":"15","size_leaf_vector":"1"}},{"base_weights":[8.149274E-3,-4.731091E-1,3.0180688E0,2.6214757E0,-1.0859605E0,2.525789E0,1.4113812E1,-2.0373078E-1,3.5556838E-1,-7.5290496E-3,-3.0115294E-1,2.0748627E-1,1.070141E0,1.9166536E0,-2.5545427E-1],"categories":[],"categories_nodes":[],"categories_segments":[],"categories_sizes":[],"default_left":[0,0,0,0,0,0,0,0,0,0,0,0,0,0,0],"id":31,"left_children":[1,3,5,7,9,11,13,-1,-1,-1,-1,-1,-1,-1,-1],"loss_changes":[5.4957744E3,6.2063667E3,2.821087E3,2.3618235E3,5.3146133E3,1.8284707E3,1.9018154E3,0E0,0E0,0E0,0E0,0E0,0E0,0E0,0E0],"parents":[2147483647,0,0,1,1,2,2,3,3,4,4,5,5,6,6],"right_children":[2,4,6,8,10,12,14,-1,-1,-1,-1,-1,-1,-1,-1],"split_conditions":[6E0,1E0,1.57E2,8E1,2.1E1,3E1,2.1E1,-2.0373078E-1,3.5556838E-1,-7.5290496E-3,-3.0115294E-1,2.0748627E-1,1.070141E0,1.9166536E0,-2.5545427E-1],"split_indices":[0,0,6,5,3,3,3,0,0,0,0,0,0,0,0],"split_type":[0,0,0,0,0,0,0,0,0,0,0,0,0,0,0],"sum_hessian":[3.792E3,3.27E3,5.22E2,5.4E2,2.73E3,5.01E2,2.1E1,9E1,4.5E2,1.791E3,9.39E2,4.76E2,2.5E1,1.6E1,5E0],"tree_param":{"num_deleted":"0","num_feature":"7","num_nodes":"15","size_leaf_vector":"1"}},{"base_weights":[8.0677755E-3,1.0861534E0,-1.2444819E0,1.5659134E0,-3.730284E0,-2.211735E0,7.340896E-1,8.8914675E-1,1.2991759E-1,-4.6879306E-1,4.4046965E-1,-4.982949E-1,-1.6809872E-1,-1.01880215E-1,2.5211886E-1],"categories":[],"categories_nodes":[],"categories_segments":[],"categories_sizes":[],"default_left":[0,0,0,0,0,0,0,0,0,0,0,0,0,0,0],"id":32,"left_children":[1,3,5,7,9,11,13,-1,-1,-1,-1,-1,-1,-1,-1],"loss_changes":[5.123251E3,4.7174277E3,3.360306E3,3.6131187E3,1.4618796E3,1.7257158E3,1.8100736E3,0E0,0E0,0E0,0E0,0E0,0E0,0E0,0E0],"parents":[2147483647,0,0,1,1,2,2,3,3,4,4,5,5,6,6],"right_children":[2,4,6,8,10,12,14,-1,-1,-1,-1,-1,-1,-1,-1],"split_conditions":[2.006E3,1.2E1,2.01E3,2E0,2.9E1,3E0,7E0,8.8914675E-1,1.2991759E-1,-4.6879306E-1,4.4046965E-1,-4.982949E-1,-1.6809872E-1,-1.01880215E-1,2.5211886E-1],"split_indices":[2,1,2,3,3,1,1,0,0,0,0,0,0,0,0],"split_type":[0,0,0,0,0,0,0,0,0,0,0,0,0,0,0],"sum_hessian":[3.792E3,2.038E3,1.754E3,1.854E3,1.84E2,1.178E3,5.76E2,6.4E1,1.79E3,1.65E2,1.9E1,1.88E2,9.9E2,2.91E2,2.85E2],"tree_param":{"num_deleted":"0","num_feature":"7","num_nodes":"15","size_leaf_vector":"1"}},{"base_weights":[7.38564E-3,-4.2685273E-1,2.7232294E0,2.3648996E0,-9.7973126E-1,2.2841072E0,1.2619418E1,1.6187541E-1,7.126235E-1,-7.228316E-3,-2.7086326E-1,1.879511E-1,9.6190405E-1,1.7195694E0,-2.4499309E-1],"categories":[],"categories_nodes":[],"categories_segments":[],"categories_sizes":[],"default_left":[0,0,0,0,0,0,0,0,0,0,0,0,0,0,0],"id":33,"left_children":[1,3,5,7,9,11,13,-1,-1,-1,-1,-1,-1,-1,-1],"loss_changes":[4.474337E3,5.0511055E3,2.243944E3,1.9104473E3,4.284438E3,1.4716992E3,1.5592812E3,0E0,0E0,0E0,0E0,0E0,0E0,0E0,0E0],"parents":[2147483647,0,0,1,1,2,2,3,3,4,4,5,5,6,6],"right_children":[2,4,6,8,10,12,14,-1,-1,-1,-1,-1,-1,-1,-1],"split_conditions":[6E0,1E0,1.57E2,1.37E2,2.1E1,3E1,2.1E1,1.6187541E-1,7.126235E-1,-7.228316E-3,-2.7086326E-1,1.879511E-1,9.6190405E-1,1.7195694E0,-2.4499309E-1],"split_indices":[0,0,6,6,3,3,3,0,0,0,0,0,0,0,0],"split_type":[0,0,0,0,0,0,0,0,0,0,0,0,0,0,0],"sum_hessian":[3.792E3,3.27E3,5.22E2,5.4E2,2.73E3,5.01E2,2.1E1,4.68E2,7.2E1,1.791E3,9.39E2,4.76E2,2.5E1,1.6E1,5E0],"tree_param":{"num_deleted":"0","num_feature":"7","num_nodes":"15","size_leaf_vector":"1"}},{"base_weights":[7.496078E-3,2.542648E0,-4.3517673E-1,-2.2820218E0,3.451443E0,-8.521213E-1,2.1425078E0,-1.6033214E0,-7.449149E-2,1.428775E-1,5.344443E-1,1.6827582E-1,-1.3604799E-1,1.9451755E-1,1.6420904E0],"categories":[],"categories_nodes":[],"categories_segments":[],"categories_sizes":[],"default_left":[0,0,0,0,0,0,0,0,0,0,0,0,0,0,0],"id":34,"left_children":[1,3,5,7,9,11,13,-1,-1,-1,-1,-1,-1,-1,-1],"loss_changes":[4.257774E3,2.4808108E3,3.4732734E3,1.8903911E3,1.8110962E3,3.5859634E3,1.2359736E3,0E0,0E0,0E0,0E0,0E0,0E0,0E0,0E0],"parents":[2147483647,0,0,1,1,2,2,3,3,4,4,5,5,6,6],"right_children":[2,4,6,8,10,12,14,-1,-1,-1,-1,-1,-1,-1,-1],"split_conditions":[2.001E3,3E0,6E0,1.08E2,1.35E2,1E0,1.33E2,-1.6033214E0,-7.449149E-2,1.428775E-1,5.344443E-1,1.6827582E-1,-1.3604799E-1,1.9451755E-1,1.6420904E0],"split_indices":[2,1,0,6,5,0,5,0,0,0,0,0,0,0,0],"split_type":[0,0,0,0,0,0,0,0,0,0,0,0,0,0,0],"sum_hessian":[3.792E3,5.63E2,3.229E3,8.9E1,4.74E2,2.78E3,4.49E2,8E0,8.1E1,2.3E2,2.44E2,4.64E2,2.316E3,4.44E2,5E0],"tree_param":{"num_deleted":"0","num_feature":"7","num_nodes":"15","size_leaf_vector":"1"}},{"base_weights":[6.975326E-3,3.3439118E-1,-3.4072435E0,1.3569577E0,-8.4545666E-1,-2.4907891E-1,-5.124714E0,7.874371E-1,1.1196663E-1,-2.2938302E-1,8.608093E-2,-1.5274808E-1,1.2325146E0,-6.694921E-1,1.9086791E-2],"categories":[],"categories_nodes":[],"categories_segments":[],"categories_sizes":[],"default_left":[0,0,0,0,0,0,0,0,0,0,0,0,0,0,0],"id":35,"left_children":[1,3,5,7,9,11,13,-1,-1,-1,-1,-1,-1,-1,-1],"loss_changes":[4.2412173E3,4.1779565E3,1.79951E3,2.859988E3,3.9758423E3,1.915666E3,1.7957891E3,0E0,0E0,0E0,0E0,0E0,0E0,0E0,0E0],"parents":[2147483647,0,0,1,1,2,2,3,3,4,4,5,5,6,6],"right_children":[2,4,6,8,10,12,14,-1,-1,-1,-1,-1,-1,-1,-1],"split_conditions":[1.2E1,2.006E3,1.2E1,2E0,7E0,2.011E3,2.7E1,7.874371E-1,1.1196663E-1,-2.2938302E-1,8.608093E-2,-1.5274808E-1,1.2325146E0,-6.694921E-1,1.9086791E-2],"split_indices":[1,2,3,3,1,2,3,0,0,0,0,0,0,0,0],"split_type":[0,0,0,0,0,0,0,0,0,0,0,0,0,0,0],"sum_hessian":[3.792E3,3.461E3,3.31E2,1.854E3,1.607E3,1.17E2,2.14E2,6.4E1,1.79E3,8.69E2,7.38E2,1.07E2,1E1,1.65E2,4.9E1],"tree_param":{"num_deleted":"0","num_feature":"7","num_nodes":"15","size_leaf_vector":"1"}},{"base_weights":[6.589564E-3,6.931829E-1,-1.3277183E0,3.400674E0,2.1042198E-1,5.7920164E-1,-3.8991208E0,-1.0673714E-1,4.8780903E-1,-4.4038456E-2,1.8333526E-1,-1.3674855E-1,1.9290046E-1,-9.0857965E-1,-1.3022248E-1],"categories":[],"categories_nodes":[],"categories_segments":[],"categories_sizes":[],"default_left":[0,0,0,0,0,0,0,0,0,0,0,0,0,0,0],"id":36,"left_children":[1,3,5,7,9,11,13,-1,-1,-1,-1,-1,-1,-1,-1],"loss_changes":[3.4757893E3,3.273497E3,6.322817E3,2.5070483E3,2.2473743E3,1.9497219E3,7.382789E3,0E0,0E0,0E0,0E0,0E0,0E0,0E0,0E0],"parents":[2147483647,0,0,1,1,2,2,3,3,4,4,5,5,6,6],"right_children":[2,4,6,8,10,12,14,-1,-1,-1,-1,-1,-1,-1,-1],"split_conditions":[2.1E1,2.001E3,4E0,4E0,5E0,9.1E1,5E0,-1.0673714E-1,4.8780903E-1,-4.4038456E-2,1.8333526E-1,-1.3674855E-1,1.9290046E-1,-9.0857965E-1,-1.3022248E-1],"split_indices":[3,2,0,1,0,6,0,0,0,0,0,0,0,0,0],"split_type":[0,0,0,0,0,0,0,0,0,0,0,0,0,0,0],"sum_hessian":[3.792E3,2.504E3,1.288E3,3.78E2,2.126E3,7.4E2,5.48E2,9.4E1,2.84E2,1.518E3,6.08E2,3.03E2,4.37E2,1.82E2,3.66E2],"tree_param":{"num_deleted":"0","num_feature":"7","num_nodes":"15","size_leaf_vector":"1"}},{"base_weights":[5.808359E-3,3.0136564E-1,-3.0761952E0,-7.0186725E0,4.4789326E-1,-4.366211E0,5.5028266E-1,-1.1083373E0,-4.5496684E-1,5.787516E-1,2.673313E-2,-8.653506E-2,-6.1873716E-1,6.0698193E-1,-3.0373856E-1],"categories":[],"categories_nodes":[],"categories_segments":[],"categories_sizes":[],"default_left":[0,0,0,0,0,0,0,0,0,0,0,0,0,0,0],"id":37,"left_children":[1,3,5,7,9,11,13,-1,-1,-1,-1,-1,-1,-1,-1],"loss_changes":[3.4560034E3,3.716442E3,1.5555696E3,6.320061E2,3.2716833E3,1.5566753E3,1.7610359E3,0E0,0E0,0E0,0E0,0E0,0E0,0E0,0E0],"parents":[2147483647,0,0,1,1,2,2,3,3,4,4,5,5,6,6],"right_children":[2,4,6,8,10,12,14,-1,-1,-1,-1,-1,-1,-1,-1],"split_conditions":[1.2E1,5.8E1,1.12E2,7.6E1,2E0,1.1E1,1.22E2,-1.1083373E0,-4.5496684E-1,5.787516E-1,2.673313E-2,-8.653506E-2,-6.1873716E-1,6.0698193E-1,-3.0373856E-1],"split_indices":[1,5,6,6,3,3,6,0,0,0,0,0,0,0,0],"split_type":[0,0,0,0,0,0,0,0,0,0,0,0,0,0,0],"sum_hessian":[3.792E3,3.461E3,3.31E2,6.7E1,3.394E3,2.44E2,8.7E1,2.4E1,4.3E1,1.1E2,3.284E3,8.4E1,1.6E2,3.4E1,5.3E1],"tree_param":{"num_deleted":"0","num_feature":"7","num_nodes":"15","size_leaf_vector":"1"}},{"base_weights":[4.8687407E-3,2.7095217E-1,-2.7697868E0,-5.7637672E0,4.1723317E-1,-3.382439E0,4.002664E0,-9.281997E-1,-3.7676117E-1,5.273595E-3,2.749262E-1,-7.627376E-2,-4.774025E-1,9.6251506E-1,-2.3073338E-1],"categories":[],"categories_nodes":[],"categories_segments":[],"categories_sizes":[],"default_left":[0,0,0,0,0,0,0,0,0,0,0,0,0,0,0],"id":38,"left_children":[1,3,5,7,9,11,13,-1,-1,-1,-1,-1,-1,-1,-1],"loss_changes":[2.8010842E3,3.0585366E3,1.3910581E3,5.4090967E2,2.8737656E3,1.108248E3,1.0155891E3,0E0,0E0,0E0,0E0,0E0,0E0,0E0,0E0],"parents":[2147483647,0,0,1,1,2,2,3,3,4,4,5,5,6,6],"right_children":[2,4,6,8,10,12,14,-1,-1,-1,-1,-1,-1,-1,-1],"split_conditions":[1.2E1,5.9E1,2.011E3,7.5E1,6E0,2.003E3,1.6E1,-9.281997E-1,-3.7676117E-1,5.273595E-3,2.749262E-1,-7.627376E-2,-4.774025E-1,9.6251506E-1,-2.3073338E-1],"split_indices":[1,5,2,6,0,2,3,0,0,0,0,0,0,0,0],"split_type":[0,0,0,0,0,0,0,0,0,0,0,0,0,0,0],"sum_hessian":[3.792E3,3.461E3,3.31E2,8.1E1,3.38E3,3.04E2,2.7E1,2.8E1,5.3E1,2.924E3,4.56E2,1.06E2,1.98E2,1.4E1,1.3E1],"tree_param":{"num_deleted":"0","num_feature":"7","num_nodes":"15","size_leaf_vector":"1"}},{"base_weights":[4.1591483E-3,-1.901006E-1,3.688938E0,5.3317285E-1,-2.1491425E0,2.7485275E0,9.031721E0,-2.4265364E-1,8.7517515E-2,-9.097958E-3,-4.9346685E-1,1.4112632E-1,6.1191505E-1,1.6146549E0,-4.1973818E-2],"categories":[],"categories_nodes":[],"categories_segments":[],"categories_sizes":[],"default_left":[0,0,0,0,0,0,0,0,0,0,0,0,0,0,0],"id":39,"left_children":[1,3,5,7,9,11,13,-1,-1,-1,-1,-1,-1,-1,-1],"loss_changes":[2.7157463E3,5.107737E3,9.2981396E2,2.6673179E3,5.572092E3,7.2607275E2,1.8896516E3,0E0,0E0,0E0,0E0,0E0,0E0,0E0,0E0],"parents":[2147483647,0,0,1,1,2,2,3,3,4,4,5,5,6,6],"right_children":[2,4,6,8,10,12,14,-1,-1,-1,-1,-1,-1,-1,-1],"split_conditions":[3E1,2.2E1,1.27E2,7.1E1,4E0,1E1,1.33E2,-2.4265364E-1,8.7517515E-2,-9.097958E-3,-4.9346685E-1,1.4112632E-1,6.1191505E-1,1.6146549E0,-4.1973818E-2],"split_indices":[3,3,5,6,0,1,6,0,0,0,0,0,0,0,0],"split_type":[0,0,0,0,0,0,0,0,0,0,0,0,0,0,0],"sum_hessian":[3.792E3,3.603E3,1.89E2,2.632E3,9.71E2,1.62E2,2.7E1,2.72E2,2.36E3,5.59E2,4.12E2,1.17E2,4.5E1,1.5E1,1.2E1],"tree_param":{"num_deleted":"0","num_feature":"7","num_nodes":"15","size_leaf_vector":"1"}},{"base_weights":[4.1822577E-3,4.373304E0,-1.4221004E-1,1.6770296E1,3.127815E0,-5.2839464E-1,1.6335138E0,2.1413639E0,3.2910404E-1,1.2888674E-1,5.503403E-1,-7.090006E-2,2.7649912E-1,1.22027874E-1,6.409931E-1],"categories":[],"categories_nodes":[],"categories_segments":[],"categories_sizes":[],"default_left":[0,0,0,0,0,0,0,0,0,0,0,0,0,0,0],"id":40,"left_children":[1,3,5,7,9,11,13,-1,-1,-1,-1,-1,-1,-1,-1],"loss_changes":[2.4266465E3,1.8467046E3,2.5182778E3,6.180032E2,4.865564E2,1.7958931E3,1.2869796E3,0E0,0E0,0E0,0E0,0E0,0E0,0E0,0E0],"parents":[2147483647,0,0,1,1,2,2,3,3,4,4,5,5,6,6],"right_children":[2,4,6,8,10,12,14,-1,-1,-1,-1,-1,-1,-1,-1],"split_conditions":[2E0,2E0,1.25E2,4E0,4E0,3E1,1.63E2,2.1413639E0,3.2910404E-1,1.2888674E-1,5.503403E-1,-7.090006E-2,2.7649912E-1,1.22027874E-1,6.409931E-1],"split_indices":[3,1,6,0,0,3,5,0,0,0,0,0,0,0,0],"split_type":[0,0,0,0,0,0,0,0,0,0,0,0,0,0,0],"sum_hessian":[3.792E3,1.22E2,3.67E3,1E1,1.12E2,3.015E3,6.55E2,7E0,3E0,6.4E1,4.8E1,2.859E3,1.56E2,6.04E2,5.1E1],"tree_param":{"num_deleted":"0","num_feature":"7","num_nodes":"15","size_leaf_vector":"1"}},{"base_weights":[4.850585E-3,-3.1310394E-1,1.9934249E0,1.8354117E0,-7.386015E-1,1.6274219E0,1.0254339E1,-1.7056824E-1,2.5458422E-1,-7.967464E-3,-1.9939826E-1,1.2863104E-1,7.8229135E-1,1.4207181E0,-2.654433E-1],"categories":[],"categories_nodes":[],"categories_segments":[],"categories_sizes":[],"default_left":[0,0,0,0,0,0,0,0,0,0,0,0,0,0,0],"id":41,"left_children":[1,3,5,7,9,11,13,-1,-1,-1,-1,-1,-1,-1,-1],"loss_changes":[2.3988477E3,2.991665E3,1.5646128E3,1.3653367E3,2.2589365E3,1.0508407E3,1.160291E3,0E0,0E0,0E0,0E0,0E0,0E0,0E0,0E0],"parents":[2147483647,0,0,1,1,2,2,3,3,4,4,5,5,6,6],"right_children":[2,4,6,8,10,12,14,-1,-1,-1,-1,-1,-1,-1,-1],"split_conditions":[6E0,1E0,1.57E2,8E1,2.1E1,3E1,2.1E1,-1.7056824E-1,2.5458422E-1,-7.967464E-3,-1.9939826E-1,1.2863104E-1,7.8229135E-1,1.4207181E0,-2.654433E-1],"split_indices":[0,0,6,5,3,3,3,0,0,0,0,0,0,0,0],"split_type":[0,0,0,0,0,0,0,0,0,0,0,0,0,0,0],"sum_hessian":[3.792E3,3.27E3,5.22E2,5.4E2,2.73E3,5.01E2,2.1E1,9E1,4.5E2,1.791E3,9.39E2,4.76E2,2.5E1,1.6E1,5E0],"tree_param":{"num_deleted":"0","num_feature":"7","num_nodes":"15","size_leaf_vector":"1"}},{"base_weights":[4.877631E-3,2.4616426E-1,-2.5112042E0,-9.2919606E-1,8.845413E-1,-3.0663996E0,3.626144E0,4.088348E-2,-2.4334447E-1,3.5069415E-1,4.369869E-2,-3.7751222E-1,8.068683E-2,8.626466E-1,-1.9903538E-1],"categories":[],"categories_nodes":[],"categories_segments":[],"categories_sizes":[],"default_left":[0,0,0,0,0,0,0,0,0,0,0,0,0,0,0],"id":42,"left_children":[1,3,5,7,9,11,13,-1,-1,-1,-1,-1,-1,-1,-1],"loss_changes":[2.303337E3,2.5984402E3,1.1423845E3,2.4545142E3,2.6321758E3,8.402932E2,8.0352985E2,0E0,0E0,0E0,0E0,0E0,0E0,0E0,0E0],"parents":[2147483647,0,0,1,1,2,2,3,3,4,4,5,5,6,6],"right_children":[2,4,6,8,10,12,14,-1,-1,-1,-1,-1,-1,-1,-1],"split_conditions":[1.2E1,5E0,2.011E3,2.006E3,2.001E3,2.7E1,1.6E1,4.088348E-2,-2.4334447E-1,3.5069415E-1,4.369869E-2,-3.7751222E-1,8.068683E-2,8.626466E-1,-1.9903538E-1],"split_indices":[1,1,2,2,2,3,3,0,0,0,0,0,0,0,0],"split_type":[0,0,0,0,0,0,0,0,0,0,0,0,0,0,0],"sum_hessian":[3.792E3,3.461E3,3.31E2,1.218E3,2.243E3,3.04E2,2.7E1,6.45E2,5.73E2,3.26E2,1.917E3,2.57E2,4.7E1,1.4E1,1.3E1],"tree_param":{"num_deleted":"0","num_feature":"7","num_nodes":"15","size_leaf_vector":"1"}},{"base_weights":[4.5361808E-3,-2.8218824E-1,1.7977886E0,1.6553915E0,-6.6591156E-1,1.5049968E0,9.928614E0,-1.8995571E-1,2.1964572E-1,-7.084433E-3,-1.7996292E-1,1.04919456E-1,5.9340185E-1,-2.121373E0,1.3008384E0],"categories":[],"categories_nodes":[],"categories_segments":[],"categories_sizes":[],"default_left":[0,0,0,0,0,0,0,0,0,0,0,0,0,0,0],"id":43,"left_children":[1,3,5,7,9,11,13,-1,-1,-1,-1,-1,-1,-1,-1],"loss_changes":[1.9507512E3,2.433073E3,1.2301313E3,1.0447646E3,1.8423093E3,1.01526575E3,2.0023584E3,0E0,0E0,0E0,0E0,0E0,0E0,0E0,0E0],"parents":[2147483647,0,0,1,1,2,2,3,3,4,4,5,5,6,6],"right_children":[2,4,6,8,10,12,14,-1,-1,-1,-1,-1,-1,-1,-1],"split_conditions":[6E0,1E0,1.47E2,7.8E1,2.1E1,2.011E3,2E0,-1.8995571E-1,2.1964572E-1,-7.084433E-3,-1.7996292E-1,1.04919456E-1,5.9340185E-1,-2.121373E0,1.3008384E0],"split_indices":[0,0,5,5,3,2,1,0,0,0,0,0,0,0,0],"split_type":[0,0,0,0,0,0,0,0,0,0,0,0,0,0,0],"sum_hessian":[3.792E3,3.27E3,5.22E2,5.4E2,2.73E3,5.05E2,1.7E1,7.1E1,4.69E2,1.791E3,9.39E2,4.59E2,4.6E1,1E0,1.6E1],"tree_param":{"num_deleted":"0","num_feature":"7","num_nodes":"15","size_leaf_vector":"1"}},{"base_weights":[4.00997E-3,-1.6132922E-1,3.1402123E0,4.0581724E-1,-1.6974767E0,7.585268E0,2.2258604E0,-2.1029726E-1,6.957342E-2,1.7226318E-2,-4.228607E-1,1.6914742E0,2.5757465E-1,6.406087E-2,6.227595E-1],"categories":[],"categories_nodes":[],"categories_segments":[],"categories_sizes":[],"default_left":[0,0,0,0,0,0,0,0,0,0,0,0,0,0,0],"id":44,"left_children":[1,3,5,7,9,11,13,-1,-1,-1,-1,-1,-1,-1,-1],"loss_changes":[1.9673182E3,3.1405679E3,7.553419E2,1.9165508E3,4.6007725E3,1.4519901E3,1.0046677E3,0E0,0E0,0E0,0E0,0E0,0E0,0E0,0E0],"parents":[2147483647,0,0,1,1,2,2,3,3,4,4,5,5,6,6],"right_children":[2,4,6,8,10,12,14,-1,-1,-1,-1,-1,-1,-1,-1],"split_conditions":[3E1,2.2E1,2.001E3,7.1E1,4E0,2E0,1E1,-2.1029726E-1,6.957342E-2,1.7226318E-2,-4.228607E-1,1.6914742E0,2.5757465E-1,6.406087E-2,6.227595E-1],"split_indices":[3,3,2,6,0,0,1,0,0,0,0,0,0,0,0],"split_type":[0,0,0,0,0,0,0,0,0,0,0,0,0,0,0],"sum_hessian":[3.792E3,3.603E3,1.89E2,2.632E3,9.71E2,3.1E1,1.58E2,2.72E2,2.36E3,5.59E2,4.12E2,1E1,2.1E1,1.14E2,4.4E1],"tree_param":{"num_deleted":"0","num_feature":"7","num_nodes":"15","size_leaf_vector":"1"}},{"base_weights":[4.1593174E-3,2.2375843E-1,-2.2857692E0,4.383626E0,8.3373725E-2,7.14326E-2,-3.568858E0,1.5398177E0,3.164755E-1,-1.07146315E-1,7.077438E-2,-8.521865E-2,9.133199E-1,-4.8398477E-1,7.2220534E-2],"categories":[],"categories_nodes":[],"categories_segments":[],"categories_sizes":[],"default_left":[0,0,0,0,0,0,0,0,0,0,0,0,0,0,0],"id":45,"left_children":[1,3,5,7,9,11,13,-1,-1,-1,-1,-1,-1,-1,-1],"loss_changes":[1.9078833E3,2.0213793E3,1.00438855E3,1.4683289E3,2.416261E3,9.953984E2,1.1760833E3,0E0,0E0,0E0,0E0,0E0,0E0,0E0,0E0],"parents":[2147483647,0,0,1,1,2,2,3,3,4,4,5,5,6,6],"right_children":[2,4,6,8,10,12,14,-1,-1,-1,-1,-1,-1,-1,-1],"split_conditions":[1.2E1,2E0,1.2E1,2E0,5E0,2.011E3,2.7E1,1.5398177E0,3.164755E-1,-1.07146315E-1,7.077438E-2,-8.521865E-2,9.133199E-1,-4.8398477E-1,7.2220534E-2],"split_indices":[1,3,3,1,1,2,3,0,0,0,0,0,0,0,0],"split_type":[0,0,0,0,0,0,0,0,0,0,0,0,0,0,0],"sum_hessian":[3.792E3,3.461E3,3.31E2,1.12E2,3.349E3,1.17E2,2.14E2,1E1,1.02E2,1.175E3,2.174E3,1.07E2,1E1,1.65E2,4.9E1],"tree_param":{"num_deleted":"0","num_feature":"7","num_nodes":"15","size_leaf_vector":"1"}},{"base_weights":[4.3318686E-3,-2.621479E-1,1.6709685E0,1.4198112E0,-5.952412E-1,1.3651788E0,8.572578E0,8.9153625E-2,4.794348E-1,3.3857954E-1,-7.259614E-2,9.497135E-2,5.3670305E-1,1.7154797E0,2.4431114E-1],"categories":[],"categories_nodes":[],"categories_segments":[],"categories_sizes":[],"default_left":[0,0,0,0,0,0,0,0,0,0,0,0,0,0,0],"id":46,"left_children":[1,3,5,7,9,11,13,-1,-1,-1,-1,-1,-1,-1,-1],"loss_changes":[1.6850039E3,1.8334207E3,1.0920573E3,9.601575E2,1.4236755E3,8.2954333E2,1.1153862E3,0E0,0E0,0E0,0E0,0E0,0E0,0E0,0E0],"parents":[2147483647,0,0,1,1,2,2,3,3,4,4,5,5,6,6],"right_children":[2,4,6,8,10,12,14,-1,-1,-1,-1,-1,-1,-1,-1],"split_conditions":[6E0,1E0,1.57E2,1.37E2,2E0,2.011E3,1.65E2,8.9153625E-2,4.794348E-1,3.3857954E-1,-7.259614E-2,9.497135E-2,5.3670305E-1,1.7154797E0,2.4431114E-1],"split_indices":[0,0,6,6,3,2,6,0,0,0,0,0,0,0,0],"split_type":[0,0,0,0,0,0,0,0,0,0,0,0,0,0,0],"sum_hessian":[3.792E3,3.27E3,5.22E2,5.4E2,2.73E3,5.01E2,2.1E1,4.68E2,7.2E1,8.6E1,2.644E3,4.55E2,4.6E1,8E0,1.3E1],"tree_param":{"num_deleted":"0","num_feature":"7","num_nodes":"15","size_leaf_vector":"1"}},{"base_weights":[4.800452E-3,2.9646462E-1,-1.4461789E0,-5.7565E-1,1.1369576E0,-2.046075E0,5.179964E0,5.6115426E-2,-1.8715969E-1,3.3772966E-1,7.532365E-2,-4.5245044E-2,-3.7808758E-1,9.806553E-1,1.5802379E-1],"categories":[],"categories_nodes":[],"categories_segments":[],"categories_sizes":[],"default_left":[0,0,0,0,0,0,0,0,0,0,0,0,0,0,0],"id":47,"left_children":[1,3,5,7,9,11,13,-1,-1,-1,-1,-1,-1,-1,-1],"loss_changes":[1.6056215E3,2.3162212E3,2.5347217E3,2.286042E3,1.380658E3,1.6100635E3,8.671892E2,0E0,0E0,0E0,0E0,0E0,0E0,0E0,0E0],"parents":[2147483647,0,0,1,1,2,2,3,3,4,4,5,5,6,6],"right_children":[2,4,6,8,10,12,14,-1,-1,-1,-1,-1,-1,-1,-1],"split_conditions":[1.1E1,6E0,2.011E3,2.006E3,2.001E3,1.7E1,1.07E2,5.6115426E-2,-1.8715969E-1,3.3772966E-1,7.532365E-2,-4.5245044E-2,-3.7808758E-1,9.806553E-1,1.5802379E-1],"split_indices":[1,1,2,2,2,3,6,0,0,0,0,0,0,0,0],"split_type":[0,0,0,0,0,0,0,0,0,0,0,0,0,0,0],"sum_hessian":[3.792E3,3.158E3,6.34E2,1.55E3,1.608E3,5.82E2,5.2E1,8.26E2,7.24E2,2.34E2,1.374E3,3.04E2,2.78E2,2.2E1,3E1],"tree_param":{"num_deleted":"0","num_feature":"7","num_nodes":"15","size_leaf_vector":"1"}},{"base_weights":[4.582569E-3,-1.4566383E-1,2.8544955E0,2.9908857E-1,-1.6049337E0,1.7375971E0,5.7851562E0,-1.8639635E-1,5.3988725E-2,8.459306E-3,-3.8672575E-1,-8.794498E-2,3.5139114E-1,-1.5556755E0,6.949968E-1],"categories":[],"categories_nodes":[],"categories_segments":[],"categories_sizes":[],"default_left":[0,0,0,0,0,0,0,0,0,0,0,0,0,0,0],"id":48,"left_children":[1,3,5,7,9,11,13,-1,-1,-1,-1,-1,-1,-1,-1],"loss_changes":[1.6245371E3,2.339526E3,6.1186536E2,1.4401426E3,3.218667E3,6.4925916E2,1.4008026E3,0E0,0E0,0E0,0E0,0E0,0E0,0E0,0E0],"parents":[2147483647,0,0,1,1,2,2,3,3,4,4,5,5,6,6],"right_children":[2,4,6,8,10,12,14,-1,-1,-1,-1,-1,-1,-1,-1],"split_conditions":[3E1,2.3E1,1.14E2,7.1E1,4E0,6E0,7.7E1,-1.8639635E-1,5.3988725E-2,8.459306E-3,-3.8672575E-1,-8.794498E-2,3.5139114E-1,-1.5556755E0,6.949968E-1],"split_indices":[3,3,5,6,0,1,6,0,0,0,0,0,0,0,0],"split_type":[0,0,0,0,0,0,0,0,0,0,0,0,0,0,0],"sum_hessian":[3.792E3,3.603E3,1.89E2,2.762E3,8.41E2,1.38E2,5.1E1,2.76E2,2.486E3,4.82E2,3.59E2,5.6E1,8.2E1,2E0,4.9E1],"tree_param":{"num_deleted":"0","num_feature":"7","num_nodes":"15","size_leaf_vector":"1"}},{"base_weights":[3.8338925E-3,-2.4381337E-1,1.5526873E0,1.2346313E0,-5.3659797E-1,1.441994E0,2.0258865E1,9.0710424E-2,5.546185E-1,3.007037E-1,-6.5295324E-2,1.1006576E-1,4.86099E-1,2.7934136E0,2.4541627E-1],"categories":[],"categories_nodes":[],"categories_segments":[],"categories_sizes":[],"default_left":[0,0,0,0,0,0,0,0,0,0,0,0,0,0,0],"id":49,"left_children":[1,3,5,7,9,11,13,-1,-1,-1,-1,-1,-1,-1,-1],"loss_changes":[1.4552568E3,1.4165668E3,1.0537363E3,7.589424E2,1.128011E3,6.026714E2,3.4141272E2,0E0,0E0,0E0,0E0,0E0,0E0,0E0,0E0],"parents":[2147483647,0,0,1,1,2,2,3,3,4,4,5,5,6,6],"right_children":[2,4,6,8,10,12,14,-1,-1,-1,-1,-1,-1,-1,-1],"split_conditions":[6E0,1E0,1.79E2,1.49E2,2E0,2.011E3,2.1E1,9.0710424E-2,5.546185E-1,3.007037E-1,-6.5295324E-2,1.1006576E-1,4.86099E-1,2.7934136E0,2.4541627E-1],"split_indices":[0,0,6,5,3,2,3,0,0,0,0,0,0,0,0],"split_type":[0,0,0,0,0,0,0,0,0,0,0,0,0,0,0],"sum_hessian":[3.792E3,3.27E3,5.22E2,5.4E2,2.73E3,5.2E2,2E0,5.03E2,3.7E1,8.6E1,2.644E3,4.74E2,4.6E1,1E0,1E0],"tree_param":{"num_deleted":"0","num_feature":"7","num_nodes":"15","size_leaf_vector":"1"}},{"base_weights":[4.638378E-3,1.8874046E-1,-1.9151388E0,-4.7632914E0,2.8787136E-1,-2.865228E0,7.5175834E-1,-5.946353E-1,6.993819E-2,1.32480925E-2,3.309698E-1,6.337661E-1,-3.24304E-1,9.8538655E-1,-1.1034224E-1],"categories":[],"categories_nodes":[],"categories_segments":[],"categories_sizes":[],"default_left":[0,0,0,0,0,0,0,0,0,0,0,0,0,0,0],"id":50,"left_children":[1,3,5,7,9,11,13,-1,-1,-1,-1,-1,-1,-1,-1],"loss_changes":[1.3409402E3,1.700865E3,8.433722E2,4.4362097E2,1.5937278E3,8.7240906E2,1.4968458E3,0E0,0E0,0E0,0E0,0E0,0E0,0E0,0E0],"parents":[2147483647,0,0,1,1,2,2,3,3,4,4,5,5,6,6],"right_children":[2,4,6,8,10,12,14,-1,-1,-1,-1,-1,-1,-1,-1],"split_conditions":[1.2E1,5.8E1,1.12E2,9.5E1,3E1,5.8E1,1.15E2,-5.946353E-1,6.993819E-2,1.32480925E-2,3.309698E-1,6.337661E-1,-3.24304E-1,9.8538655E-1,-1.1034224E-1],"split_indices":[1,5,6,6,3,5,6,0,0,0,0,0,0,0,0],"split_type":[0,0,0,0,0,0,0,0,0,0,0,0,0,0,0],"sum_hessian":[3.792E3,3.461E3,3.31E2,6.7E1,3.394E3,2.44E2,8.7E1,5.5E1,1.2E1,3.229E3,1.65E2,9E0,2.35E2,1.4E1,7.3E1],"tree_param":{"num_deleted":"0","num_feature":"7","num_nodes":"15","size_leaf_vector":"1"}},{"base_weights":[4.4420855E-3,5.245525E-1,-5.9983695E-1,9.074993E-1,-1.3782783E0,-1.3030866E0,8.3817214E-1,3.317987E-1,6.1235547E-2,-2.2544435E-1,3.9068407E-1,-1.11758076E-1,-6.424746E-1,-2.9369561E-2,1.9908547E-1],"categories":[],"categories_nodes":[],"categories_segments":[],"categories_sizes":[],"default_left":[0,0,0,0,0,0,0,0,0,0,0,0,0,0,0],"id":51,"left_children":[1,3,5,7,9,11,13,-1,-1,-1,-1,-1,-1,-1,-1],"loss_changes":[1.1924236E3,1.4870352E3,1.7758877E3,1.2059943E3,1.5924854E3,1.1129847E3,7.533876E2,0E0,0E0,0E0,0E0,0E0,0E0,0E0,0E0],"parents":[2147483647,0,0,1,1,2,2,3,3,4,4,5,5,6,6],"right_children":[2,4,6,8,10,12,14,-1,-1,-1,-1,-1,-1,-1,-1],"split_conditions":[2.006E3,1.1E1,2.01E3,8.6E1,2.7E1,1.05E2,7E0,3.317987E-1,6.1235547E-2,-2.2544435E-1,3.9068407E-1,-1.11758076E-1,-6.424746E-1,-2.9369561E-2,1.9908547E-1],"split_indices":[2,1,2,6,3,5,1,0,0,0,0,0,0,0,0],"split_type":[0,0,0,0,0,0,0,0,0,0,0,0,0,0,0],"sum_hessian":[3.792E3,2.038E3,1.754E3,1.697E3,3.41E2,1.178E3,5.76E2,1.84E2,1.513E3,2.93E2,4.8E1,1.138E3,4E1,2.91E2,2.85E2],"tree_param":{"num_deleted":"0","num_feature":"7","num_nodes":"15","size_leaf_vector":"1"}},{"base_weights":[3.9905836E-3,-2.2036627E-1,1.4071785E0,-3.057654E-1,4.2046585E0,1.3020452E0,1.9196268E1,-3.1250808E-1,-1.8575368E-2,-6.181936E-1,6.320964E-1,1.7419086E-1,-7.410031E-2,2.6500192E0,2.2942124E-1],"categories":[],"categories_nodes":[],"categories_segments":[],"categories_sizes":[],"default_left":[0,0,0,0,0,0,0,0,0,0,0,0,0,0,0],"id":52,"left_children":[1,3,5,7,9,11,13,-1,-1,-1,-1,-1,-1,-1,-1],"loss_changes":[1.1944027E3,1.2373744E3,9.5313367E2,1.0855259E3,1.4019105E3,4.6949377E2,3.095569E2,0E0,0E0,0E0,0E0,0E0,0E0,0E0,0E0],"parents":[2147483647,0,0,1,1,2,2,3,3,4,4,5,5,6,6],"right_children":[2,4,6,8,10,12,14,-1,-1,-1,-1,-1,-1,-1,-1],"split_conditions":[6E0,1.64E2,1.79E2,6.3E1,4E0,1.1E1,2.1E1,-3.1250808E-1,-1.8575368E-2,-6.181936E-1,6.320964E-1,1.7419086E-1,-7.410031E-2,2.6500192E0,2.2942124E-1],"split_indices":[0,5,6,5,1,1,3,0,0,0,0,0,0,0,0],"split_type":[0,0,0,0,0,0,0,0,0,0,0,0,0,0,0],"sum_hessian":[3.792E3,3.27E3,5.22E2,3.209E3,6.1E1,5.2E2,2E0,1.3E2,3.079E3,1E1,5.1E1,4.28E2,9.2E1,1E0,1E0],"tree_param":{"num_deleted":"0","num_feature":"7","num_nodes":"15","size_leaf_vector":"1"}},{"base_weights":[4.294098E-3,2.8988116E0,-9.269036E-2,1.3508823E1,1.8403254E0,-1.7945259E0,1.0840735E-1,1.7794212E0,1.5608406E-1,1.3690385E-2,4.0624085E-1,-3.459326E-1,4.2930733E-2,9.214151E-2,-4.7546715E-2],"categories":[],"categories_nodes":[],"categories_segments":[],"categories_sizes":[],"default_left":[0,0,0,0,0,0,0,0,0,0,0,0,0,0,0],"id":53,"left_children":[1,3,5,7,9,11,13,-1,-1,-1,-1,-1,-1,-1,-1],"loss_changes":[1.0650519E3,1.356497E3,1.25654E3,5.3544543E2,4.2716516E2,1.4379534E3,1.5593347E3,0E0,0E0,0E0,0E0,0E0,0E0,0E0,0E0],"parents":[2147483647,0,0,1,1,2,2,3,3,4,4,5,5,6,6],"right_children":[2,4,6,8,10,12,14,-1,-1,-1,-1,-1,-1,-1,-1],"split_conditions":[2E0,2E0,5E0,4E0,4E0,4E0,1.6E1,1.7794212E0,1.5608406E-1,1.3690385E-2,4.0624085E-1,-3.459326E-1,4.2930733E-2,9.214151E-2,-4.7546715E-2],"split_indices":[3,1,3,0,0,0,3,0,0,0,0,0,0,0,0],"split_type":[0,0,0,0,0,0,0,0,0,0,0,0,0,0,0],"sum_hessian":[3.792E3,1.22E2,3.67E3,1E1,1.12E2,3.87E2,3.283E3,7E0,3E0,6.4E1,4.8E1,2.21E2,1.66E2,1.372E3,1.911E3],"tree_param":{"num_deleted":"0","num_feature":"7","num_nodes":"15","size_leaf_vector":"1"}},{"base_weights":[4.4174297E-3,-1.164311E-1,2.2967E0,2.626821E-1,-1.3603425E0,2.7088275E0,-4.042258E0,9.4952434E-2,-3.2733824E-2,1.7237501E-2,-3.4129596E-1,1.8591009E-1,1.1875231E0,-7.5446874E-1,4.848772E-1],"categories":[],"categories_nodes":[],"categories_segments":[],"categories_sizes":[],"default_left":[0,0,0,0,0,0,0,0,0,0,0,0,0,0,0],"id":54,"left_children":[1,3,5,7,9,11,13,-1,-1,-1,-1,-1,-1,-1,-1],"loss_changes":[1.0510005E3,1.6999432E3,5.073167E2,1.120019E3,2.6495898E3,1.3721423E3,4.102649E2,0E0,0E0,0E0,0E0,0E0,0E0,0E0,0E0],"parents":[2147483647,0,0,1,1,2,2,3,3,4,4,5,5,6,6],"right_children":[2,4,6,8,10,12,14,-1,-1,-1,-1,-1,-1,-1,-1],"split_conditions":[3E1,2.3E1,1.38E2,2.005E3,4E0,1.32E2,3.1E1,9.4952434E-2,-3.2733824E-2,1.7237501E-2,-3.4129596E-1,1.8591009E-1,1.1875231E0,-7.5446874E-1,4.848772E-1],"split_indices":[3,3,6,2,0,5,3,0,0,0,0,0,0,0,0],"split_type":[0,0,0,0,0,0,0,0,0,0,0,0,0,0,0],"sum_hessian":[3.792E3,3.603E3,1.89E2,2.762E3,8.41E2,1.78E2,1.1E1,1.276E3,1.486E3,4.82E2,3.59E2,1.64E2,1.4E1,8E0,3E0],"tree_param":{"num_deleted":"0","num_feature":"7","num_nodes":"15","size_leaf_vector":"1"}},{"base_weights":[4.1950787E-3,-3.2431805E-1,8.2973254E-1,1.120189E0,-6.836345E-1,6.5553546E-1,7.1202703E0,-1.632628E-1,1.5395138E-1,-9.498265E-2,1.4160964E-1,-5.3303745E-2,1.1995273E-1,1.2461216E0,1.3046397E-1],"categories":[],"categories_nodes":[],"categories_segments":[],"categories_sizes":[],"default_left":[0,0,0,0,0,0,0,0,0,0,0,0,0,0,0],"id":55,"left_children":[1,3,5,7,9,11,13,-1,-1,-1,-1,-1,-1,-1,-1],"loss_changes":[1.0289303E3,1.4094271E3,1.1787891E3,6.270029E2,1.2164619E3,6.808351E2,8.8451086E2,0E0,0E0,0E0,0E0,0E0,0E0,0E0,0E0],"parents":[2147483647,0,0,1,1,2,2,3,3,4,4,5,5,6,6],"right_children":[2,4,6,8,10,12,14,-1,-1,-1,-1,-1,-1,-1,-1],"split_conditions":[5E0,1E0,1.57E2,7.8E1,2.8E1,5E0,1.65E2,-1.632628E-1,1.5395138E-1,-9.498265E-2,1.4160964E-1,-5.3303745E-2,1.1995273E-1,1.2461216E0,1.3046397E-1],"split_indices":[0,0,6,5,3,1,6,0,0,0,0,0,0,0,0],"split_type":[0,0,0,0,0,0,0,0,0,0,0,0,0,0,0],"sum_hessian":[3.792E3,2.713E3,1.079E3,5.4E2,2.173E3,1.051E3,2.8E1,7.1E1,4.69E2,1.929E3,2.44E2,3.3E2,7.21E2,1.4E1,1.4E1],"tree_param":{"num_deleted":"0","num_feature":"7","num_nodes":"15","size_leaf_vector":"1"}},{"base_weights":[4.1683447E-3,1.5954736E-1,-1.6160916E0,-4.9968028E-1,6.942244E-1,3.4436554E-1,-2.6845467E0,-9.903641E-2,1.3543774E-1,2.5449857E-1,3.791138E-2,-3.741333E-1,1.7797324E-1,-9.645276E-2,-5.062745E-1],"categories":[],"categories_nodes":[],"categories_segments":[],"categories_sizes":[],"default_left":[0,0,0,0,0,0,0,0,0,0,0,0,0,0,0],"id":56,"left_children":[1,3,5,7,9,11,13,-1,-1,-1,-1,-1,-1,-1,-1],"loss_changes":[9.5516223E2,1.2206115E3,6.963517E2,1.4123729E3,1.114103E3,6.986667E2,8.7458435E2,0E0,0E0,0E0,0E0,0E0,0E0,0E0,0E0],"parents":[2147483647,0,0,1,1,2,2,3,3,4,4,5,5,6,6],"right_children":[2,4,6,8,10,12,14,-1,-1,-1,-1,-1,-1,-1,-1],"split_conditions":[1.2E1,6E0,1.2E1,1.21E2,2.001E3,2E0,4E0,-9.903641E-2,1.3543774E-1,2.5449857E-1,3.791138E-2,-3.741333E-1,1.7797324E-1,-9.645276E-2,-5.062745E-1],"split_indices":[1,1,3,5,2,0,0,0,0,0,0,0,0,0,0],"split_type":[0,0,0,0,0,0,0,0,0,0,0,0,0,0,0],"sum_hessian":[3.792E3,3.461E3,3.31E2,1.55E3,1.911E3,1.17E2,2.14E2,1.226E3,3.24E2,2.77E2,1.634E3,3E1,8.7E1,1.25E2,8.9E1],"tree_param":{"num_deleted":"0","num_feature":"7","num_nodes":"15","size_leaf_vector":"1"}},{"base_weights":[3.6278043E-3,-1.9064096E-1,1.2186364E0,1.005783E0,-4.2757785E-1,1.1191285E0,1.8093622E1,6.2051088E-2,3.467246E-1,-1.1770393E-3,-1.2198112E-1,8.132439E-2,4.186704E-1,2.4958992E0,2.1814422E-1],"categories":[],"categories_nodes":[],"categories_segments":[],"categories_sizes":[],"default_left":[0,0,0,0,0,0,0,0,0,0,0,0,0,0,0],"id":57,"left_children":[1,3,5,7,9,11,13,-1,-1,-1,-1,-1,-1,-1,-1],"loss_changes":[8.9552527E2,9.2768335E2,8.579693E2,5.1089673E2,8.996224E2,4.854618E2,2.732824E2,0E0,0E0,0E0,0E0,0E0,0E0,0E0,0E0],"parents":[2147483647,0,0,1,1,2,2,3,3,4,4,5,5,6,6],"right_children":[2,4,6,8,10,12,14,-1,-1,-1,-1,-1,-1,-1,-1],"split_conditions":[6E0,1E0,1.79E2,1.37E2,2.1E1,2.011E3,2.1E1,6.2051088E-2,3.467246E-1,-1.1770393E-3,-1.2198112E-1,8.132439E-2,4.186704E-1,2.4958992E0,2.1814422E-1],"split_indices":[0,0,6,6,3,2,3,0,0,0,0,0,0,0,0],"split_type":[0,0,0,0,0,0,0,0,0,0,0,0,0,0,0],"sum_hessian":[3.792E3,3.27E3,5.22E2,5.4E2,2.73E3,5.2E2,2E0,4.68E2,7.2E1,1.791E3,9.39E2,4.74E2,4.6E1,1E0,1E0],"tree_param":{"num_deleted":"0","num_feature":"7","num_nodes":"15","size_leaf_vector":"1"}},{"base_weights":[4.1862587E-3,2.1729176E-1,-1.0559783E0,-2.3463045E-1,1.238906E0,-1.5624541E0,4.53518E0,2.4258769E-1,-4.327493E-2,5.5484362E-2,3.8998017E-1,-2.472895E-2,-2.9945788E-1,-5.9065044E-1,5.993832E-1],"categories":[],"categories_nodes":[],"categories_segments":[],"categories_sizes":[],"default_left":[0,0,0,0,0,0,0,0,0,0,0,0,0,0,0],"id":58,"left_children":[1,3,5,7,9,11,13,-1,-1,-1,-1,-1,-1,-1,-1],"loss_changes":[8.5717017E2,1.45877E3,1.8052708E3,1.1559187E3,1.7616283E3,1.0973281E3,8.4263367E2,0E0,0E0,0E0,0E0,0E0,0E0,0E0,0E0],"parents":[2147483647,0,0,1,1,2,2,3,3,4,4,5,5,6,6],"right_children":[2,4,6,8,10,12,14,-1,-1,-1,-1,-1,-1,-1,-1],"split_conditions":[1.1E1,8E0,2.011E3,2E3,1.25E2,1.7E1,8.4E1,2.4258769E-1,-4.327493E-2,5.5484362E-2,3.8998017E-1,-2.472895E-2,-2.9945788E-1,-5.9065044E-1,5.993832E-1],"split_indices":[1,1,2,2,6,3,5,0,0,0,0,0,0,0,0],"split_type":[0,0,0,0,0,0,0,0,0,0,0,0,0,0,0],"sum_hessian":[3.792E3,3.158E3,6.34E2,2.19E3,9.68E2,5.82E2,5.2E1,1.51E2,2.039E3,7.71E2,1.97E2,3.04E2,2.78E2,6E0,4.6E1],"tree_param":{"num_deleted":"0","num_feature":"7","num_nodes":"15","size_leaf_vector":"1"}},{"base_weights":[3.8548838E-3,-1.04220346E-1,2.0538511E0,2.1185148E-1,-1.1412777E0,9.716381E-1,4.761431E0,-4.8226874E-2,7.070285E-2,2.5388822E-2,-3.009955E-1,3.309706E-2,1.126103E0,9.296881E-1,-1.2952504E-1],"categories":[],"categories_nodes":[],"categories_segments":[],"categories_sizes":[],"default_left":[0,0,0,0,0,0,0,0,0,0,0,0,0,0,0],"id":59,"left_children":[1,3,5,7,9,11,13,-1,-1,-1,-1,-1,-1,-1,-1],"loss_changes":[8.405678E2,1.1815774E3,5.5210754E2,9.500183E2,2.1959546E3,8.9938776E2,1.4954094E3,0E0,0E0,0E0,0E0,0E0,0E0,0E0,0E0],"parents":[2147483647,0,0,1,1,2,2,3,3,4,4,5,5,6,6],"right_children":[2,4,6,8,10,12,14,-1,-1,-1,-1,-1,-1,-1,-1],"split_conditions":[3E1,2.3E1,1E1,1E1,4E0,1.42E2,1.2E1,-4.8226874E-2,7.070285E-2,2.5388822E-2,-3.009955E-1,3.309706E-2,1.126103E0,9.296881E-1,-1.2952504E-1],"split_indices":[3,3,1,3,0,5,1,0,0,0,0,0,0,0,0],"split_type":[0,0,0,0,0,0,0,0,0,0,0,0,0,0,0],"sum_hessian":[3.792E3,3.603E3,1.89E2,2.762E3,8.41E2,1.36E2,5.3E1,1.15E3,1.612E3,4.82E2,3.59E2,1.29E2,7E0,3E1,2.3E1],"tree_param":{"num_deleted":"0","num_feature":"7","num_nodes":"15","size_leaf_vector":"1"}},{"base_weights":[3.9189947E-3,-3.0135766E-1,7.710643E-1,8.6948717E-1,-5.9258384E-1,6.236839E-1,6.0908265E0,-1.447852E-1,1.2226339E-1,-8.398661E-2,1.3578138E-1,-3.7351843E-2,1.07998624E-1,1.1094621E0,6.809769E-2],"categories":[],"categories_nodes":[],"categories_segments":[],"categories_sizes":[],"default_left":[0,0,0,0,0,0,0,0,0,0,0,0,0,0,0],"id":60,"left_children":[1,3,5,7,9,11,13,-1,-1,-1,-1,-1,-1,-1,-1],"loss_changes":[8.8852094E2,9.2593665E2,8.429521E2,4.4450327E2,1.049658E3,4.7909055E2,7.7746826E2,0E0,0E0,0E0,0E0,0E0,0E0,0E0,0E0],"parents":[2147483647,0,0,1,1,2,2,3,3,4,4,5,5,6,6],"right_children":[2,4,6,8,10,12,14,-1,-1,-1,-1,-1,-1,-1,-1],"split_conditions":[5E0,1E0,1.57E2,7.8E1,2.8E1,5E0,1.65E2,-1.447852E-1,1.2226339E-1,-8.398661E-2,1.3578138E-1,-3.7351843E-2,1.07998624E-1,1.1094621E0,6.809769E-2],"split_indices":[0,0,6,5,3,1,6,0,0,0,0,0,0,0,0],"split_type":[0,0,0,0,0,0,0,0,0,0,0,0,0,0,0],"sum_hessian":[3.792E3,2.713E3,1.079E3,5.4E2,2.173E3,1.051E3,2.8E1,7.1E1,4.69E2,1.929E3,2.44E2,3.3E2,7.21E2,1.4E1,1.4E1],"tree_param":{"num_deleted":"0","num_feature":"7","num_nodes":"15","size_leaf_vector":"1"}},{"base_weights":[3.8623302E-3,2.6244955E0,-8.394528E-2,1.2438994E1,1.6458762E0,-1.6272501E0,9.8419584E-2,1.6308835E0,1.5895653E-1,1.326139E-2,3.6196753E-1,-1.0916108E-1,-8.220453E-1,7.497219E-2,-3.6932964E-2],"categories":[],"categories_nodes":[],"categories_segments":[],"categories_sizes":[],"default_left":[0,0,0,0,0,0,0,0,0,0,0,0,0,0,0],"id":61,"left_children":[1,3,5,7,9,11,13,-1,-1,-1,-1,-1,-1,-1,-1],"loss_changes":[8.7303326E2,1.1608997E3,1.0333431E3,4.3591724E2,3.3703702E2,1.3612788E3,1.00073486E3,0E0,0E0,0E0,0E0,0E0,0E0,0E0,0E0],"parents":[2147483647,0,0,1,1,2,2,3,3,4,4,5,5,6,6],"right_children":[2,4,6,8,10,12,14,-1,-1,-1,-1,-1,-1,-1,-1],"split_conditions":[2E0,2E0,5E0,4E0,4E0,1.34E2,1.6E1,1.6308835E0,1.5895653E-1,1.326139E-2,3.6196753E-1,-1.0916108E-1,-8.220453E-1,7.497219E-2,-3.6932964E-2],"split_indices":[3,1,3,0,0,6,3,0,0,0,0,0,0,0,0],"split_type":[0,0,0,0,0,0,0,0,0,0,0,0,0,0,0],"sum_hessian":[3.792E3,1.22E2,3.67E3,1E1,1.12E2,3.87E2,3.283E3,7E0,3E0,6.4E1,4.8E1,3.59E2,2.8E1,1.372E3,1.911E3],"tree_param":{"num_deleted":"0","num_feature":"7","num_nodes":"15","size_leaf_vector":"1"}},{"base_weights":[3.8113322E-3,2.3796482E0,-7.579415E-2,1.1357806E1,1.4846094E0,-1.4669244E0,8.858902E-2,1.7178448E0,3.6441967E-1,4.7792718E-1,6.806183E-2,-1.2259793E-1,-1.4406084E0,-1.1030722E-1,3.1471793E-2],"categories":[],"categories_nodes":[],"categories_segments":[],"categories_sizes":[],"default_left":[0,0,0,0,0,0,0,0,0,0,0,0,0,0,0],"id":62,"left_children":[1,3,5,7,9,11,13,-1,-1,-1,-1,-1,-1,-1,-1],"loss_changes":[7.1754913E2,9.715414E2,8.3960846E2,4.3127808E2,2.9607043E2,1.191978E3,8.8528345E2,0E0,0E0,0E0,0E0,0E0,0E0,0E0,0E0],"parents":[2147483647,0,0,1,1,2,2,3,3,4,4,5,5,6,6],"right_children":[2,4,6,8,10,12,14,-1,-1,-1,-1,-1,-1,-1,-1],"split_conditions":[2E0,2E0,5E0,2.005E3,7.1E1,1.45E2,3E0,1.7178448E0,3.6441967E-1,4.7792718E-1,6.806183E-2,-1.2259793E-1,-1.4406084E0,-1.1030722E-1,3.1471793E-2],"split_indices":[3,1,3,2,6,6,1,0,0,0,0,0,0,0,0],"split_type":[0,0,0,0,0,0,0,0,0,0,0,0,0,0,0],"sum_hessian":[3.792E3,1.22E2,3.67E3,1E1,1.12E2,3.87E2,3.283E3,5E0,5E0,2.1E1,9.1E1,3.81E2,6E0,5.23E2,2.76E3],"tree_param":{"num_deleted":"0","num_feature":"7","num_nodes":"15","size_leaf_vector":"1"}},{"base_weights":[3.6896681E-3,2.0059541E-1,-9.758834E-1,-1.8335181E-1,1.0685291E0,-1.4314915E0,4.0542183E0,2.1839772E-1,-3.5965115E-2,4.5875E-2,3.4406552E-1,-1.9462492E-1,1.6495833E-1,8.484743E-1,6.3627355E-2],"categories":[],"categories_nodes":[],"categories_segments":[],"categories_sizes":[],"default_left":[0,0,0,0,0,0,0,0,0,0,0,0,0,0,0],"id":63,"left_children":[1,3,5,7,9,11,13,-1,-1,-1,-1,-1,-1,-1,-1],"loss_changes":[7.318031E2,1.0529032E3,1.4610679E3,9.1521796E2,1.4000538E3,9.278524E2,7.971957E2,0E0,0E0,0E0,0E0,0E0,0E0,0E0,0E0],"parents":[2147483647,0,0,1,1,2,2,3,3,4,4,5,5,6,6],"right_children":[2,4,6,8,10,12,14,-1,-1,-1,-1,-1,-1,-1,-1],"split_conditions":[1.1E1,8E0,2.011E3,2E3,1.25E2,2.7E1,1.07E2,2.1839772E-1,-3.5965115E-2,4.5875E-2,3.4406552E-1,-1.9462492E-1,1.6495833E-1,8.484743E-1,6.3627355E-2],"split_indices":[1,1,2,2,6,3,6,0,0,0,0,0,0,0,0],"split_type":[0,0,0,0,0,0,0,0,0,0,0,0,0,0,0],"sum_hessian":[3.792E3,3.158E3,6.34E2,2.19E3,9.68E2,5.82E2,5.2E1,1.51E2,2.039E3,7.71E2,1.97E2,4.99E2,8.3E1,2.2E1,3E1],"tree_param":{"num_deleted":"0","num_feature":"7","num_nodes":"15","size_leaf_vector":"1"}},{"base_weights":[3.7041486E-3,-2.6818103E-1,6.869381E-1,7.8655773E-1,-5.3052944E-1,6.411348E-1,1.6916616E1,1.4816892E-1,-2.9919673E-2,-7.503278E-2,1.2031084E-1,-6.599714E-2,9.256246E-2,2.3413873E0,1.961052E-1],"categories":[],"categories_nodes":[],"categories_segments":[],"categories_sizes":[],"default_left":[0,0,0,0,0,0,0,0,0,0,0,0,0,0,0],"id":64,"left_children":[1,3,5,7,9,11,13,-1,-1,-1,-1,-1,-1,-1,-1],"loss_changes":[7.0477637E2,7.514057E2,7.919971E2,4.0875876E2,8.293069E2,3.996341E2,2.4559454E2,0E0,0E0,0E0,0E0,0E0,0E0,0E0,0E0],"parents":[2147483647,0,0,1,1,2,2,3,3,4,4,5,5,6,6],"right_children":[2,4,6,8,10,12,14,-1,-1,-1,-1,-1,-1,-1,-1],"split_conditions":[5E0,1E0,1.79E2,2.007E3,2.8E1,7.2E1,2.1E1,1.4816892E-1,-2.9919673E-2,-7.503278E-2,1.2031084E-1,-6.599714E-2,9.256246E-2,2.3413873E0,1.961052E-1],"split_indices":[0,0,6,2,3,5,3,0,0,0,0,0,0,0,0],"split_type":[0,0,0,0,0,0,0,0,0,0,0,0,0,0,0],"sum_hessian":[3.792E3,2.713E3,1.079E3,5.4E2,2.173E3,1.077E3,2E0,3.29E2,2.11E2,1.929E3,2.44E2,1.93E2,8.84E2,1E0,1E0],"tree_param":{"num_deleted":"0","num_feature":"7","num_nodes":"15","size_leaf_vector":"1"}},{"base_weights":[4.054495E-3,-5.0783984E-2,3.1015363E0,-2.1705584E-1,9.777005E-1,-5.768989E0,4.7885766E0,-3.1893107E-1,-1.4977968E-2,8.8822864E-2,1.6070786E0,-1.0158879E0,9.3236744E-1,9.6711653E-1,8.244105E-2],"categories":[],"categories_nodes":[],"categories_segments":[],"categories_sizes":[],"default_left":[0,0,0,0,0,0,0,0,0,0,0,0,0,0,0],"id":65,"left_children":[1,3,5,7,9,11,13,-1,-1,-1,-1,-1,-1,-1,-1],"loss_changes":[6.4444104E2,6.377301E2,1.0153107E3,6.413999E2,6.865864E2,8.235244E2,1.0759288E3,0E0,0E0,0E0,0E0,0E0,0E0,0E0,0E0],"parents":[2147483647,0,0,1,1,2,2,3,3,4,4,5,5,6,6],"right_children":[2,4,6,8,10,12,14,-1,-1,-1,-1,-1,-1,-1,-1],"split_conditions":[1.64E2,6E0,4E0,5.9E1,1.79E2,1.47E2,6E0,-3.1893107E-1,-1.4977968E-2,8.8822864E-2,1.6070786E0,-1.0158879E0,9.3236744E-1,9.6711653E-1,8.244105E-2],"split_indices":[5,0,1,5,6,6,1,0,0,0,0,0,0,0,0],"split_type":[0,0,0,0,0,0,0,0,0,0,0,0,0,0,0],"sum_hessian":[3.792E3,3.727E3,6.5E1,3.209E3,5.18E2,1E1,5.5E1,7E1,3.139E3,5.16E2,2E0,8E0,2E0,2.4E1,3.1E1],"tree_param":{"num_deleted":"0","num_feature":"7","num_nodes":"15","size_leaf_vector":"1"}},{"base_weights":[4.262444E-3,2.172412E0,-6.8384424E-2,1.0455748E1,1.3468446E0,-2.2915094E0,1.51826935E-2,1.5786759E0,3.3821118E-1,4.36944E-1,6.0941037E-2,-6.4041877E-1,-5.7902575E-2,-6.1401885E-2,3.1288847E-2],"categories":[],"categories_nodes":[],"categories_segments":[],"categories_sizes":[],"default_left":[0,0,0,0,0,0,0,0,0,0,0,0,0,0,0],"id":66,"left_children":[1,3,5,7,9,11,13,-1,-1,-1,-1,-1,-1,-1,-1],"loss_changes":[5.975812E2,8.270471E2,6.8203375E2,3.6141333E2,2.4921036E2,9.329966E2,6.631068E2,0E0,0E0,0E0,0E0,0E0,0E0,0E0,0E0],"parents":[2147483647,0,0,1,1,2,2,3,3,4,4,5,5,6,6],"right_children":[2,4,6,8,10,12,14,-1,-1,-1,-1,-1,-1,-1,-1],"split_conditions":[2E0,2E0,3E0,2.005E3,7.1E1,2E0,5E0,1.5786759E0,3.3821118E-1,4.36944E-1,6.0941037E-2,-6.4041877E-1,-5.7902575E-2,-6.1401885E-2,3.1288847E-2],"split_indices":[3,1,3,2,6,0,1,0,0,0,0,0,0,0,0],"split_type":[0,0,0,0,0,0,0,0,0,0,0,0,0,0,0],"sum_hessian":[3.792E3,1.22E2,3.67E3,1E1,1.12E2,1.32E2,3.538E3,5E0,5E0,2.1E1,9.1E1,3.8E1,9.4E1,1.136E3,2.402E3],"tree_param":{"num_deleted":"0","num_feature":"7","num_nodes":"15","size_leaf_vector":"1"}},{"base_weights":[4.2803255E-3,1.8538995E-1,-8.967112E-1,-1.4700063E-1,9.3676496E-1,4.6446902E-1,-2.4086668E0,-1.8889777E-2,7.4765664E-1,3.98167E-2,3.0320218E-1,-2.2580364E-1,1.5357286E-1,-4.0486953E-1,1.5434085E-1],"categories":[],"categories_nodes":[],"categories_segments":[],"categories_sizes":[],"default_left":[0,0,0,0,0,0,0,0,0,0,0,0,0,0,0],"id":67,"left_children":[1,3,5,7,9,11,13,-1,-1,-1,-1,-1,-1,-1,-1],"loss_changes":[6.1910126E2,7.890978E2,1.3079767E3,7.012304E2,1.0923103E3,9.8049854E2,1.9571848E3,0E0,0E0,0E0,0E0,0E0,0E0,0E0,0E0],"parents":[2147483647,0,0,1,1,2,2,3,3,4,4,5,5,6,6],"right_children":[2,4,6,8,10,12,14,-1,-1,-1,-1,-1,-1,-1,-1],"split_conditions":[1.1E1,8E0,1.7E1,1.75E2,1.25E2,2E0,2.7E1,-1.8889777E-2,7.4765664E-1,3.98167E-2,3.0320218E-1,-2.2580364E-1,1.5357286E-1,-4.0486953E-1,1.5434085E-1],"split_indices":[1,1,3,6,6,0,3,0,0,0,0,0,0,0,0],"split_type":[0,0,0,0,0,0,0,0,0,0,0,0,0,0,0],"sum_hessian":[3.792E3,3.158E3,6.34E2,2.19E3,9.68E2,3.34E2,3E2,2.179E3,1.1E1,7.71E2,1.97E2,9.4E1,2.4E2,2.12E2,8.8E1],"tree_param":{"num_deleted":"0","num_feature":"7","num_nodes":"15","size_leaf_vector":"1"}},{"base_weights":[4.049859E-3,1.1870957E-1,-1.1916007E0,-3.2391655E0,1.8593101E-1,7.1404243E0,-1.4458688E0,-6.404714E-1,-1.366941E-1,8.385562E-3,2.1709767E-1,-2.2341156E-2,7.983452E-1,-2.3879956E-1,1.0971735E-1],"categories":[],"categories_nodes":[],"categories_segments":[],"categories_sizes":[],"default_left":[0,0,0,0,0,0,0,0,0,0,0,0,0,0,0],"id":68,"left_children":[1,3,5,7,9,11,13,-1,-1,-1,-1,-1,-1,-1,-1],"loss_changes":[5.20135E2,7.820491E2,7.1368915E2,3.9425513E2,6.877274E2,6.3862762E1,7.764852E2,0E0,0E0,0E0,0E0,0E0,0E0,0E0,0E0],"parents":[2147483647,0,0,1,1,2,2,3,3,4,4,5,5,6,6],"right_children":[2,4,6,8,10,12,14,-1,-1,-1,-1,-1,-1,-1,-1],"split_conditions":[1.2E1,5.8E1,5.8E1,7.6E1,3E1,3.5E1,1.12E2,-6.404714E-1,-1.366941E-1,8.385562E-3,2.1709767E-1,-2.2341156E-2,7.983452E-1,-2.3879956E-1,1.0971735E-1],"split_indices":[1,5,5,6,3,5,6,0,0,0,0,0,0,0,0],"split_type":[0,0,0,0,0,0,0,0,0,0,0,0,0,0,0],"sum_hessian":[3.792E3,3.461E3,3.31E2,6.7E1,3.394E3,9E0,3.22E2,2.4E1,4.3E1,3.229E3,1.65E2,1E0,8E0,2.35E2,8.7E1],"tree_param":{"num_deleted":"0","num_feature":"7","num_nodes":"15","size_leaf_vector":"1"}},{"base_weights":[3.6699781E-3,2.6952448E-1,-5.129857E-1,-3.6790293E-1,1.1136588E0,6.836614E-1,-2.127198E0,6.765044E-2,-9.506386E-2,5.757081E-2,3.0728427E-1,1.3091235E0,6.323673E-2,-6.1347437E-1,-1.2308895E-2],"categories":[],"categories_nodes":[],"categories_segments":[],"categories_sizes":[],"default_left":[0,0,0,0,0,0,0,0,0,0,0,0,0,0,0],"id":69,"left_children":[1,3,5,7,9,11,13,-1,-1,-1,-1,-1,-1,-1,-1],"loss_changes":[5.211267E2,1.348286E3,2.4913413E3,8.6974304E2,1.134383E3,4.6332062E2,4.4085703E3,0E0,0E0,0E0,0E0,0E0,0E0,0E0,0E0],"parents":[2147483647,0,0,1,1,2,2,3,3,4,4,5,5,6,6],"right_children":[2,4,6,8,10,12,14,-1,-1,-1,-1,-1,-1,-1,-1],"split_conditions":[2.1E1,4E0,4E0,9.2E1,1.2E2,5.4E1,5E0,6.765044E-2,-9.506386E-2,5.757081E-2,3.0728427E-1,1.3091235E0,6.323673E-2,-6.1347437E-1,-1.2308895E-2],"split_indices":[3,0,0,5,5,6,0,0,0,0,0,0,0,0,0],"split_type":[0,0,0,0,0,0,0,0,0,0,0,0,0,0,0],"sum_hessian":[3.792E3,2.504E3,1.288E3,1.427E3,1.077E3,7.4E2,5.48E2,5.11E2,9.16E2,8.46E2,2.31E2,2E0,7.38E2,1.82E2,3.66E2],"tree_param":{"num_deleted":"0","num_feature":"7","num_nodes":"15","size_leaf_vector":"1"}},{"base_weights":[3.5877032E-3,-1.0275387E-1,1.2932888E0,1.7395167E-1,-9.321223E-1,3.6263603E-1,3.8967943E0,-2.094059E-2,1.4513132E-1,-1.17421485E-1,1.0062066E0,7.809557E-2,-1.7279316E0,-2.5245914E-1,5.5172104E-1],"categories":[],"categories_nodes":[],"categories_segments":[],"categories_sizes":[],"default_left":[0,0,0,0,0,0,0,0,0,0,0,0,0,0,0],"id":70,"left_children":[1,3,5,7,9,11,13,-1,-1,-1,-1,-1,-1,-1,-1],"loss_changes":[5.203385E2,8.045275E2,6.988222E2,1.2876888E3,2.3460476E3,1.5928088E3,8.047328E2,0E0,0E0,0E0,0E0,0E0,0E0,0E0,0E0],"parents":[2147483647,0,0,1,1,2,2,3,3,4,4,5,5,6,6],"right_children":[2,4,6,8,10,12,14,-1,-1,-1,-1,-1,-1,-1,-1],"split_conditions":[2.011E3,1E1,1E1,8E0,3.1E1,1.22E2,9.6E1,-2.094059E-2,1.4513132E-1,-1.17421485E-1,1.0062066E0,7.809557E-2,-1.7279316E0,-2.5245914E-1,5.5172104E-1],"split_indices":[2,1,1,1,3,6,5,0,0,0,0,0,0,0,0],"split_type":[0,0,0,0,0,0,0,0,0,0,0,0,0,0,0],"sum_hessian":[3.792E3,3.504E3,2.88E2,2.628E3,8.76E2,2.13E2,7.5E1,2.022E3,6.06E2,8.58E2,1.8E1,2.09E2,4E0,1.5E1,6E1],"tree_param":{"num_deleted":"0","num_feature":"7","num_nodes":"15","size_leaf_vector":"1"}},{"base_weights":[3.1406614E-3,-4.5832977E-2,2.7693617E0,1.9580389E0,-1.13023296E-1,-5.060306E0,4.2578793E0,9.5669407E-1,1.1863636E-1,-1.338709E-1,3.0830547E-3,-9.0421003E-1,8.5718435E-1,8.738306E-1,6.244874E-2],"categories":[],"categories_nodes":[],"categories_segments":[],"categories_sizes":[],"default_left":[0,0,0,0,0,0,0,0,0,0,0,0,0,0,0],"id":71,"left_children":[1,3,5,7,9,11,13,-1,-1,-1,-1,-1,-1,-1,-1],"loss_changes":[5.1397186E2,5.0216214E2,7.907497E2,6.9911383E2,6.362024E2,6.745919E2,9.0617523E2,0E0,0E0,0E0,0E0,0E0,0E0,0E0,0E0],"parents":[2147483647,0,0,1,1,2,2,3,3,4,4,5,5,6,6],"right_children":[2,4,6,8,10,12,14,-1,-1,-1,-1,-1,-1,-1,-1],"split_conditions":[1.64E2,2E0,4E0,2E0,5E0,1.47E2,6E0,9.5669407E-1,1.1863636E-1,-1.338709E-1,3.0830547E-3,-9.0421003E-1,8.5718435E-1,8.738306E-1,6.244874E-2],"split_indices":[5,3,1,1,3,6,1,0,0,0,0,0,0,0,0],"split_type":[0,0,0,0,0,0,0,0,0,0,0,0,0,0,0],"sum_hessian":[3.792E3,3.727E3,6.5E1,1.2E2,3.607E3,1E1,5.5E1,1E1,1.1E2,3.78E2,3.229E3,8E0,2E0,2.4E1,3.1E1],"tree_param":{"num_deleted":"0","num_feature":"7","num_nodes":"15","size_leaf_vector":"1"}},{"base_weights":[3.3107952E-3,2.4854764E-1,-4.7327697E-1,-3.2715926E-1,1.0109417E0,6.036752E-1,-1.9260061E0,-4.9755007E-2,3.0360103E-1,1.3119088E-1,-2.0813659E-1,1.2262555E0,5.5552866E-2,-5.5462474E-1,-1.1556971E-2],"categories":[],"categories_nodes":[],"categories_segments":[],"categories_sizes":[],"default_left":[0,0,0,0,0,0,0,0,0,0,0,0,0,0,0],"id":72,"left_children":[1,3,5,7,9,11,13,-1,-1,-1,-1,-1,-1,-1,-1],"loss_changes":[4.4343164E2,1.0998142E3,2.0178285E3,8.1983057E2,1.0060066E3,4.0913712E2,3.5976235E3,0E0,0E0,0E0,0E0,0E0,0E0,0E0,0E0],"parents":[2147483647,0,0,1,1,2,2,3,3,4,4,5,5,6,6],"right_children":[2,4,6,8,10,12,14,-1,-1,-1,-1,-1,-1,-1,-1],"split_conditions":[2.1E1,4E0,4E0,2E1,1.2E1,5.4E1,5E0,-4.9755007E-2,3.0360103E-1,1.3119088E-1,-2.0813659E-1,1.2262555E0,5.5552866E-2,-5.5462474E-1,-1.1556971E-2],"split_indices":[3,0,0,3,1,6,0,0,0,0,0,0,0,0,0],"split_type":[0,0,0,0,0,0,0,0,0,0,0,0,0,0,0],"sum_hessian":[3.792E3,2.504E3,1.288E3,1.427E3,1.077E3,7.4E2,5.48E2,1.359E3,6.8E1,9.82E2,9.5E1,2E0,7.38E2,1.82E2,3.66E2],"tree_param":{"num_deleted":"0","num_feature":"7","num_nodes":"15","size_leaf_vector":"1"}},{"base_weights":[3.2153241E-3,-4.1153878E-2,2.509354E0,-1.9162235E-1,7.808873E-1,-4.5228915E0,3.8458784E0,1.6571214E-2,-1.10571444E-1,1.1908498E-1,-2.4112593E-1,-8.2058334E-1,8.0335647E-1,6.473047E-1,-1.2066781E-1],"categories":[],"categories_nodes":[],"categories_segments":[],"categories_sizes":[],"default_left":[0,0,0,0,0,0,0,0,0,0,0,0,0,0,0],"id":73,"left_children":[1,3,5,7,9,11,13,-1,-1,-1,-1,-1,-1,-1,-1],"loss_changes":[4.2186734E2,4.6127075E2,6.37713E2,1.029742E3,7.579684E2,5.746137E2,7.511504E2,0E0,0E0,0E0,0E0,0E0,0E0,0E0,0E0],"parents":[2147483647,0,0,1,1,2,2,3,3,4,4,5,5,6,6],"right_children":[2,4,6,8,10,12,14,-1,-1,-1,-1,-1,-1,-1,-1],"split_conditions":[1.64E2,2.01E3,4E0,2.007E3,1.13E2,1.47E2,1.58E2,1.6571214E-2,-1.10571444E-1,1.1908498E-1,-2.4112593E-1,-8.2058334E-1,8.0335647E-1,6.473047E-1,-1.2066781E-1],"split_indices":[5,2,1,2,5,6,6,0,0,0,0,0,0,0,0],"split_type":[0,0,0,0,0,0,0,0,0,0,0,0,0,0,0],"sum_hessian":[3.792E3,3.727E3,6.5E1,3.151E3,5.76E2,1E1,5.5E1,2.266E3,8.85E2,5.11E2,6.5E1,8E0,2E0,3.6E1,1.9E1],"tree_param":{"num_deleted":"0","num_feature":"7","num_nodes":"15","size_leaf_vector":"1"}},{"base_weights":[2.971236E-3,-7.069861E-2,1.4003563E0,1.3343923E-1,-1.1095443E0,1.8325421E0,-5.163112E0,-1.3578351E-1,2.7833795E-2,1.4024983E-1,-1.9350167E-1,8.0416626E-1,9.1125354E-2,-8.5898733E-1,3.8378793E-1],"categories":[],"categories_nodes":[],"categories_segments":[],"categories_sizes":[],"default_left":[0,0,0,0,0,0,0,0,0,0,0,0,0,0,0],"id":74,"left_children":[1,3,5,7,9,11,13,-1,-1,-1,-1,-1,-1,-1,-1],"loss_changes":[3.9056995E2,7.6444E2,5.4842285E2,6.5143823E2,1.2302982E3,1.01662225E3,4.030979E2,0E0,0E0,0E0,0E0,0E0,0E0,0E0,0E0],"parents":[2147483647,0,0,1,1,2,2,3,3,4,4,5,5,6,6],"right_children":[2,4,6,8,10,12,14,-1,-1,-1,-1,-1,-1,-1,-1],"split_conditions":[3E1,2.5E1,1.38E2,7E1,7.9E1,2.001E3,3.1E1,-1.3578351E-1,2.7833795E-2,1.4024983E-1,-1.9350167E-1,8.0416626E-1,9.1125354E-2,-8.5898733E-1,3.8378793E-1],"split_indices":[3,3,6,6,6,2,3,0,0,0,0,0,0,0,0],"split_type":[0,0,0,0,0,0,0,0,0,0,0,0,0,0,0],"sum_hessian":[3.792E3,3.603E3,1.89E2,3.012E3,5.91E2,1.78E2,1.1E1,2.66E2,2.746E3,1.46E2,4.45E2,2.2E1,1.56E2,8E0,3E0],"tree_param":{"num_deleted":"0","num_feature":"7","num_nodes":"15","size_leaf_vector":"1"}},{"base_weights":[2.743601E-3,1.7600743E0,-5.6138016E-2,8.767333E0,1.0623759E0,-6.898725E-1,1.9061527E-1,1.2373148E0,-6.361313E-2,3.8985932E-1,3.7260246E-2,-1.4378897E-2,-2.4181865E-1,1.4740163E-1,-3.0082835E-2],"categories":[],"categories_nodes":[],"categories_segments":[],"categories_sizes":[],"default_left":[0,0,0,0,0,0,0,0,0,0,0,0,0,0,0],"id":75,"left_children":[1,3,5,7,9,11,13,-1,-1,-1,-1,-1,-1,-1,-1],"loss_changes":[3.9257745E2,5.92027E2,5.74188E2,3.808496E2,2.1961464E2,9.708264E2,1.6674343E3,0E0,0E0,0E0,0E0,0E0,0E0,0E0,0E0],"parents":[2147483647,0,0,1,1,2,2,3,3,4,4,5,5,6,6],"right_children":[2,4,6,8,10,12,14,-1,-1,-1,-1,-1,-1,-1,-1],"split_conditions":[2E0,2E0,1E1,4E0,7.1E1,8E0,1.6E1,1.2373148E0,-6.361313E-2,3.8985932E-1,3.7260246E-2,-1.4378897E-2,-2.4181865E-1,1.4740163E-1,-3.0082835E-2],"split_indices":[3,1,3,0,6,3,3,0,0,0,0,0,0,0,0],"split_type":[0,0,0,0,0,0,0,0,0,0,0,0,0,0,0],"sum_hessian":[3.792E3,1.22E2,3.67E3,1E1,1.12E2,1.028E3,2.642E3,7E0,3E0,2.1E1,9.1E1,7.82E2,2.46E2,7.31E2,1.911E3],"tree_param":{"num_deleted":"0","num_feature":"7","num_nodes":"15","size_leaf_vector":"1"}},{"base_weights":[2.855735E-3,-8.633391E-2,1.0845404E0,2.788916E-1,-5.9390616E-1,2.1143252E-1,3.5287578E0,8.1419677E-1,2.009013E-2,-4.7078278E-2,-8.303445E-1,5.9579622E-2,-1.597413E0,-4.34089E-1,4.6506643E-1],"categories":[],"categories_nodes":[],"categories_segments":[],"categories_sizes":[],"default_left":[0,0,0,0,0,0,0,0,0,0,0,0,0,0,0],"id":76,"left_children":[1,3,5,7,9,11,13,-1,-1,-1,-1,-1,-1,-1,-1],"loss_changes":[3.6602353E2,6.499167E2,6.1599884E2,1.2487682E3,1.3886034E3,1.3408417E3,6.911925E2,0E0,0E0,0E0,0E0,0E0,0E0,0E0,0E0],"parents":[2147483647,0,0,1,1,2,2,3,3,4,4,5,5,6,6],"right_children":[2,4,6,8,10,12,14,-1,-1,-1,-1,-1,-1,-1,-1],"split_conditions":[2.011E3,2.006E3,1E1,6.1E1,1.17E2,1.22E2,8.4E1,8.1419677E-1,2.009013E-2,-4.7078278E-2,-8.303445E-1,5.9579622E-2,-1.597413E0,-4.34089E-1,4.6506643E-1],"split_indices":[2,2,1,6,5,6,5,0,0,0,0,0,0,0,0],"split_type":[0,0,0,0,0,0,0,0,0,0,0,0,0,0,0],"sum_hessian":[3.792E3,3.504E3,2.88E2,2.038E3,1.466E3,2.13E2,7.5E1,1.9E1,2.019E3,1.444E3,2.2E1,2.09E2,4E0,9E0,6.6E1],"tree_param":{"num_deleted":"0","num_feature":"7","num_nodes":"15","size_leaf_vector":"1"}},{"base_weights":[2.162696E-3,7.722618E-1,-1.2591162E-1,3.0799018E-2,1.7303777E0,-1.0867877E0,7.000721E-2,1.4086398E-1,-3.2400188E-1,2.2695951E-1,-1.9086283E-1,-1.9231626E-1,1.4546895E-1,6.629076E-2,-6.0150295E-2],"categories":[],"categories_nodes":[],"categories_segments":[],"categories_sizes":[],"default_left":[0,0,0,0,0,0,0,0,0,0,0,0,0,0,0],"id":77,"left_children":[1,3,5,7,9,11,13,-1,-1,-1,-1,-1,-1,-1,-1],"loss_changes":[3.7420056E2,3.8427707E2,6.1246545E2,1.3836038E3,4.6741473E2,1.1740186E3,1.0765674E3,0E0,0E0,0E0,0E0,0E0,0E0,0E0,0E0],"parents":[2147483647,0,0,1,1,2,2,3,3,4,4,5,5,6,6],"right_children":[2,4,6,8,10,12,14,-1,-1,-1,-1,-1,-1,-1,-1],"split_conditions":[1E0,8E0,2E0,6E0,1.39E2,2.4E1,1.7E1,1.4086398E-1,-3.2400188E-1,2.2695951E-1,-1.9086283E-1,-1.9231626E-1,1.4546895E-1,6.629076E-2,-6.0150295E-2],"split_indices":[0,1,0,1,5,3,3,0,0,0,0,0,0,0,0],"split_type":[0,0,0,0,0,0,0,0,0,0,0,0,0,0,0],"sum_hessian":[3.792E3,5.4E2,3.252E3,3.05E2,2.35E2,5.5E2,2.702E3,2.15E2,9E1,2.05E2,3E1,4.14E2,1.36E2,1.435E3,1.267E3],"tree_param":{"num_deleted":"0","num_feature":"7","num_nodes":"15","size_leaf_vector":"1"}},{"base_weights":[1.8968801E-3,1.4335077E-1,-7.018114E-1,-4.9717775E-1,4.6889707E-1,4.6588832E-1,-1.9990791E0,-5.9495658E-2,6.3870037E-1,-1.0374011E-1,8.227828E-2,9.301573E-3,7.0274216E-1,-3.4120196E-1,1.4049141E-1],"categories":[],"categories_nodes":[],"categories_segments":[],"categories_sizes":[],"default_left":[0,0,0,0,0,0,0,0,0,0,0,0,0,0,0],"id":78,"left_children":[1,3,5,7,9,11,13,-1,-1,-1,-1,-1,-1,-1,-1],"loss_changes":[3.7766446E2,6.589532E2,9.628415E2,7.206804E2,1.1176088E3,8.1896265E2,1.452495E3,0E0,0E0,0E0,0E0,0E0,0E0,0E0,0E0],"parents":[2147483647,0,0,1,1,2,2,3,3,4,4,5,5,6,6],"right_children":[2,4,6,8,10,12,14,-1,-1,-1,-1,-1,-1,-1,-1],"split_conditions":[1.1E1,1.1E1,1.7E1,1.59E2,3E0,1.5E2,2.7E1,-5.9495658E-2,6.3870037E-1,-1.0374011E-1,8.227828E-2,9.301573E-3,7.0274216E-1,-3.4120196E-1,1.4049141E-1],"split_indices":[1,3,3,6,1,5,3,0,0,0,0,0,0,0,0],"split_type":[0,0,0,0,0,0,0,0,0,0,0,0,0,0,0],"sum_hessian":[3.792E3,3.158E3,6.34E2,1.064E3,2.094E3,3.34E2,3E2,1.05E3,1.4E1,3.98E2,1.696E3,3.17E2,1.7E1,2.12E2,8.8E1],"tree_param":{"num_deleted":"0","num_feature":"7","num_nodes":"15","size_leaf_vector":"1"}},{"base_weights":[1.9897413E-3,-1.2240436E-1,6.955319E-1,1.9079755E-1,-9.4663066E-1,1.0605673E0,-2.1467955E0,3.4359983E-1,1.0211714E-2,-7.498142E-2,-7.694996E-1,-2.5941392E-2,2.208067E-1,1.3428618E-1,-7.9235476E-1],"categories":[],"categories_nodes":[],"categories_segments":[],"categories_sizes":[],"default_left":[0,0,0,0,0,0,0,0,0,0,0,0,0,0,0],"id":79,"left_children":[1,3,5,7,9,11,13,-1,-1,-1,-1,-1,-1,-1,-1],"loss_changes":[3.2731696E2,8.306467E2,6.009431E2,6.707655E2,1.1710056E3,7.76088E2,1.3411266E3,0E0,0E0,0E0,0E0,0E0,0E0,0E0,0E0],"parents":[2147483647,0,0,1,1,2,2,3,3,4,4,5,5,6,6],"right_children":[2,4,6,8,10,12,14,-1,-1,-1,-1,-1,-1,-1,-1],"split_conditions":[2.01E3,2.007E3,1.13E2,6.4E1,1.05E2,6E0,1.11E2,3.4359983E-1,1.0211714E-2,-7.498142E-2,-7.694996E-1,-2.5941392E-2,2.208067E-1,1.3428618E-1,-7.9235476E-1],"split_indices":[2,2,5,6,5,1,6,0,0,0,0,0,0,0,0],"split_type":[0,0,0,0,0,0,0,0,0,0,0,0,0,0,0],"sum_hessian":[3.792E3,3.216E3,5.76E2,2.331E3,8.85E2,5.11E2,6.5E1,6.1E1,2.27E3,8.61E2,2.4E1,2.38E2,2.73E2,4.1E1,2.4E1],"tree_param":{"num_deleted":"0","num_feature":"7","num_nodes":"15","size_leaf_vector":"1"}},{"base_weights":[1.5412463E-3,-2.2323368E-2,3.5993087E0,1.2234591E-2,-5.908728E0,-2.922823E0,8.932614E0,-2.0573915E-3,7.6661044E-1,-9.769036E-1,7.527211E-2,1.5626507E-1,-9.5150167E-1,4.1521606E-1,1.6706997E0],"categories":[],"categories_nodes":[],"categories_segments":[],"categories_sizes":[],"default_left":[0,0,0,0,0,0,0,0,0,0,0,0,0,0,0],"id":80,"left_children":[1,3,5,7,9,11,13,-1,-1,-1,-1,-1,-1,-1,-1],"loss_changes":[3.2574478E2,7.667703E2,8.9572144E2,9.4132556E2,5.7308875E2,3.6969794E2,4.5094104E2,0E0,0E0,0E0,0E0,0E0,0E0,0E0,0E0],"parents":[2147483647,0,0,1,1,2,2,3,3,4,4,5,5,6,6],"right_children":[2,4,6,8,10,12,14,-1,-1,-1,-1,-1,-1,-1,-1],"split_conditions":[1.72E2,1.66E2,1.33E2,1.63E2,2.3E1,2E3,1.8E1,-2.0573915E-3,7.6661044E-1,-9.769036E-1,7.527211E-2,1.5626507E-1,-9.5150167E-1,4.1521606E-1,1.6706997E0],"split_indices":[6,6,5,6,3,2,3,0,0,0,0,0,0,0,0],"split_type":[0,0,0,0,0,0,0,0,0,0,0,0,0,0,0],"sum_hessian":[3.792E3,3.768E3,2.4E1,3.747E3,2.1E1,1.1E1,1.3E1,3.732E3,1.5E1,1.3E1,8E0,7E0,4E0,9E0,4E0],"tree_param":{"num_deleted":"0","num_feature":"7","num_nodes":"15","size_leaf_vector":"1"}},{"base_weights":[1.6937015E-3,9.208203E-2,-9.408547E-1,-2.6712713E0,1.4740337E-1,6.959001E0,-1.1825194E0,-2.2551408E-1,-1.5276009E0,-4.689331E-2,4.209186E-2,7.8473824E-1,-5.182152E-2,-2.0231164E-1,1.08524635E-1],"categories":[],"categories_nodes":[],"categories_segments":[],"categories_sizes":[],"default_left":[0,0,0,0,0,0,0,0,0,0,0,0,0,0,0],"id":81,"left_children":[1,3,5,7,9,11,13,-1,-1,-1,-1,-1,-1,-1,-1],"loss_changes":[3.232327E2,5.2963806E2,6.420558E2,3.222252E2,5.7251776E2,7.049283E1,6.17923E2,0E0,0E0,0E0,0E0,0E0,0E0,0E0,0E0],"parents":[2147483647,0,0,1,1,2,2,3,3,4,4,5,5,6,6],"right_children":[2,4,6,8,10,12,14,-1,-1,-1,-1,-1,-1,-1,-1],"split_conditions":[1.2E1,5.8E1,5.8E1,1.08E2,1E1,2.7E1,1.12E2,-2.2551408E-1,-1.5276009E0,-4.689331E-2,4.209186E-2,7.8473824E-1,-5.182152E-2,-2.0231164E-1,1.08524635E-1],"split_indices":[1,5,5,6,3,3,6,0,0,0,0,0,0,0,0],"split_type":[0,0,0,0,0,0,0,0,0,0,0,0,0,0,0],"sum_hessian":[3.792E3,3.461E3,3.31E2,6.7E1,3.394E3,9E0,3.22E2,6.6E1,1E0,1.043E3,2.351E3,8E0,1E0,2.35E2,8.7E1],"tree_param":{"num_deleted":"0","num_feature":"7","num_nodes":"15","size_leaf_vector":"1"}},{"base_weights":[1.22807E-3,1.6172858E0,-5.2919663E-2,7.9499784E0,9.865168E-1,-1.8914273E0,1.6188681E-2,3.1528923E-1,1.5556656E0,1.23167574E-1,-6.001984E-1,-5.2148145E-1,-5.0717976E-2,-4.9197134E-2,2.5662223E-2],"categories":[],"categories_nodes":[],"categories_segments":[],"categories_sizes":[],"default_left":[0,0,0,0,0,0,0,0,0,0,0,0,0,0,0],"id":82,"left_children":[1,3,5,7,9,11,13,-1,-1,-1,-1,-1,-1,-1,-1],"loss_changes":[3.3199533E2,4.834766E2,4.66454E2,3.5234027E2,2.0099466E2,6.0920715E2,4.3251672E2,0E0,0E0,0E0,0E0,0E0,0E0,0E0,0E0],"parents":[2147483647,0,0,1,1,2,2,3,3,4,4,5,5,6,6],"right_children":[2,4,6,8,10,12,14,-1,-1,-1,-1,-1,-1,-1,-1],"split_conditions":[2E0,2E0,3E0,1.29E2,1.57E2,2E0,5E0,3.1528923E-1,1.5556656E0,1.23167574E-1,-6.001984E-1,-5.2148145E-1,-5.0717976E-2,-4.9197134E-2,2.5662223E-2],"split_indices":[3,1,3,5,5,0,1,0,0,0,0,0,0,0,0],"split_type":[0,0,0,0,0,0,0,0,0,0,0,0,0,0,0],"sum_hessian":[3.792E3,1.22E2,3.67E3,1E1,1.12E2,1.32E2,3.538E3,7E0,3E0,1.09E2,3E0,3.8E1,9.4E1,1.136E3,2.402E3],"tree_param":{"num_deleted":"0","num_feature":"7","num_nodes":"15","size_leaf_vector":"1"}},{"base_weights":[1.3129789E-3,7.1129954E-1,-1.1676389E-1,-4.780018E0,8.131828E-1,1.1158992E-1,-8.022435E-1,-8.6882067E-1,3.2543164E-1,1.2355288E-2,1.7044131E-1,-5.3349834E-2,8.9072764E-2,-1.03183284E-1,1.0698663E0],"categories":[],"categories_nodes":[],"categories_segments":[],"categories_sizes":[],"default_left":[0,0,0,0,0,0,0,0,0,0,0,0,0,0,0],"id":83,"left_children":[1,3,5,7,9,11,13,-1,-1,-1,-1,-1,-1,-1,-1],"loss_changes":[3.180616E2,3.0656198E2,5.0928772E2,3.4227106E2,3.2676672E2,1.2273524E3,2.1577534E3,0E0,0E0,0E0,0E0,0E0,0E0,0E0,0E0],"parents":[2147483647,0,0,1,1,2,2,3,3,4,4,5,5,6,6],"right_children":[2,4,6,8,10,12,14,-1,-1,-1,-1,-1,-1,-1,-1],"split_conditions":[1E0,6.3E1,1E1,2.01E3,8E0,6E0,3.1E1,-8.6882067E-1,3.2543164E-1,1.2355288E-2,1.7044131E-1,-5.3349834E-2,8.9072764E-2,-1.03183284E-1,1.0698663E0],"split_indices":[0,5,1,2,1,1,3,0,0,0,0,0,0,0,0],"split_type":[0,0,0,0,0,0,0,0,0,0,0,0,0,0,0],"sum_hessian":[3.792E3,5.4E2,3.252E3,9E0,5.31E2,2.44E3,8.12E2,6E0,3E0,3E2,2.31E2,1.335E3,1.105E3,7.97E2,1.5E1],"tree_param":{"num_deleted":"0","num_feature":"7","num_nodes":"15","size_leaf_vector":"1"}},{"base_weights":[1.3511259E-3,-1.1490517E-1,7.2845054E-1,1.2246108E-1,-6.494549E-1,6.5256774E-1,1.3663945E1,-4.4694003E-2,6.5340936E-2,4.305609E-2,-2.7662817E-1,3.3960587E-1,3.6697872E-2,1.9888519E0,6.07399E-2],"categories":[],"categories_nodes":[],"categories_segments":[],"categories_sizes":[],"default_left":[0,0,0,0,0,0,0,0,0,0,0,0,0,0,0],"id":84,"left_children":[1,3,5,7,9,11,13,-1,-1,-1,-1,-1,-1,-1,-1],"loss_changes":[3.2070557E2,4.1511734E2,5.0445044E2,6.8535486E2,2.3011145E3,4.069629E2,2.3173401E2,0E0,0E0,0E0,0E0,0E0,0E0,0E0,0E0],"parents":[2147483647,0,0,1,1,2,2,3,3,4,4,5,5,6,6],"right_children":[2,4,6,8,10,12,14,-1,-1,-1,-1,-1,-1,-1,-1],"split_conditions":[6E0,2.2E1,1.79E2,1.1E1,4E0,6.6E1,2.1E1,-4.4694003E-2,6.5340936E-2,4.305609E-2,-2.7662817E-1,3.3960587E-1,3.6697872E-2,1.9888519E0,6.07399E-2],"split_indices":[0,3,6,3,0,5,3,0,0,0,0,0,0,0,0],"split_type":[0,0,0,0,0,0,0,0,0,0,0,0,0,0,0],"sum_hessian":[3.792E3,3.27E3,5.22E2,2.265E3,1.005E3,5.2E2,2E0,1.093E3,1.172E3,6.66E2,3.39E2,4.8E1,4.72E2,1E0,1E0],"tree_param":{"num_deleted":"0","num_feature":"7","num_nodes":"15","size_leaf_vector":"1"}},{"base_weights":[1.8003873E-3,-3.586186E-2,2.1291194E0,-1.2193947E-2,-4.6554456E0,-4.016119E0,3.2982E0,1.7160574E-1,-6.994331E-3,-7.5715464E-1,5.023944E-1,-8.2596743E-1,5.4750216E-1,7.409041E-1,-1.6463756E-3],"categories":[],"categories_nodes":[],"categories_segments":[],"categories_sizes":[],"default_left":[0,0,0,0,0,0,0,0,0,0,0,0,0,0,0],"id":85,"left_children":[1,3,5,7,9,11,13,-1,-1,-1,-1,-1,-1,-1,-1],"loss_changes":[3.0397006E2,4.0754745E2,4.8740826E2,3.7039807E2,5.7433435E2,4.8825983E2,7.63181E2,0E0,0E0,0E0,0E0,0E0,0E0,0E0,0E0],"parents":[2147483647,0,0,1,1,2,2,3,3,4,4,5,5,6,6],"right_children":[2,4,6,8,10,12,14,-1,-1,-1,-1,-1,-1,-1,-1],"split_conditions":[1.64E2,1.61E2,4E0,2E0,9E0,1.79E2,6E0,1.7160574E-1,-6.994331E-3,-7.5715464E-1,5.023944E-1,-8.2596743E-1,5.4750216E-1,7.409041E-1,-1.6463756E-3],"split_indices":[5,5,1,3,1,5,1,0,0,0,0,0,0,0,0],"split_type":[0,0,0,0,0,0,0,0,0,0,0,0,0,0,0],"sum_hessian":[3.792E3,3.727E3,6.5E1,3.709E3,1.8E1,1E1,5.5E1,1.19E2,3.59E3,1.4E1,4E0,7E0,3E0,2.4E1,3.1E1],"tree_param":{"num_deleted":"0","num_feature":"7","num_nodes":"15","size_leaf_vector":"1"}},{"base_weights":[1.7190063E-3,-1.7524618E-1,4.4642437E-1,2.9678285E-1,-6.4333713E-1,-5.213478E-1,9.391484E-1,-4.0190212E-2,3.0470905E-1,3.4406047E-2,-4.568958E-1,4.6865055E-1,-1.10544875E-1,-8.453786E-2,1.5049279E-1],"categories":[],"categories_nodes":[],"categories_segments":[],"categories_sizes":[],"default_left":[0,0,0,0,0,0,0,0,0,0,0,0,0,0,0],"id":86,"left_children":[1,3,5,7,9,11,13,-1,-1,-1,-1,-1,-1,-1,-1],"loss_changes":[2.9857736E2,5.998561E2,5.154818E2,2.5992258E3,5.2847627E3,1.1154785E3,7.241808E2,0E0,0E0,0E0,0E0,0E0,0E0,0E0,0E0],"parents":[2147483647,0,0,1,1,2,2,3,3,4,4,5,5,6,6],"right_children":[2,4,6,8,10,12,14,-1,-1,-1,-1,-1,-1,-1,-1],"split_conditions":[5E0,1.6E1,1.1E1,4E0,4E0,7.4E1,7.3E1,-4.0190212E-2,3.0470905E-1,3.4406047E-2,-4.568958E-1,4.6865055E-1,-1.10544875E-1,-8.453786E-2,1.5049279E-1],"split_indices":[0,3,3,0,0,5,5,0,0,0,0,0,0,0,0],"split_type":[0,0,0,0,0,0,0,0,0,0,0,0,0,0,0],"sum_hessian":[3.792E3,2.713E3,1.079E3,1.351E3,1.362E3,3.64E2,7.15E2,1.078E3,2.73E2,1.089E3,2.73E2,3.6E1,3.28E2,1.72E2,5.43E2],"tree_param":{"num_deleted":"0","num_feature":"7","num_nodes":"15","size_leaf_vector":"1"}},{"base_weights":[1.6170947E-3,-9.825729E-2,8.0179447E-1,1.1324645E-1,-1.8632504E0,4.2018976E0,4.436638E-1,3.5432044E-2,-6.146266E-2,8.0324285E-2,-2.859903E-1,6.285886E-1,-1.18456595E-1,-3.244246E-2,2.7675143E-1],"categories":[],"categories_nodes":[],"categories_segments":[],"categories_sizes":[],"default_left":[0,0,0,0,0,0,0,0,0,0,0,0,0,0,0],"id":87,"left_children":[1,3,5,7,9,11,13,-1,-1,-1,-1,-1,-1,-1,-1],"loss_changes":[3.032048E2,1.2593608E3,5.1077963E2,5.289127E2,9.6167896E2,4.564591E2,6.827383E2,0E0,0E0,0E0,0E0,0E0,0E0,0E0,0E0],"parents":[2147483647,0,0,1,1,2,2,3,3,4,4,5,5,6,6],"right_children":[2,4,6,8,10,12,14,-1,-1,-1,-1,-1,-1,-1,-1],"split_conditions":[2.8E1,2.5E1,6.4E1,1E1,8.2E1,8.3E1,1.14E2,3.5432044E-2,-6.146266E-2,8.0324285E-2,-2.859903E-1,6.285886E-1,-1.18456595E-1,-3.244246E-2,2.7675143E-1],"split_indices":[3,3,6,1,6,5,5,0,0,0,0,0,0,0,0],"split_type":[0,0,0,0,0,0,0,0,0,0,0,0,0,0,0],"sum_hessian":[3.792E3,3.372E3,4.2E2,3.012E3,3.6E2,3.9E1,3.81E2,2.263E3,7.49E2,9.8E1,2.62E2,2.8E1,1.1E1,2.87E2,9.4E1],"tree_param":{"num_deleted":"0","num_feature":"7","num_nodes":"15","size_leaf_vector":"1"}},{"base_weights":[1.5936624E-3,2.8038561E0,-2.4498591E-2,-3.1941095E-1,8.816735E0,2.5308093E-1,-2.965107E-1,6.7338544E-1,-1.6476801E-1,2.593175E-1,1.160437E0,1.8722464E-3,3.714675E-1,5.0974127E-2,-9.083904E-2],"categories":[],"categories_nodes":[],"categories_segments":[],"categories_sizes":[],"default_left":[0,0,0,0,0,0,0,0,0,0,0,0,0,0,0],"id":88,"left_children":[1,3,5,7,9,11,13,-1,-1,-1,-1,-1,-1,-1,-1],"loss_changes":[2.7740274E2,6.6011017E2,2.8389832E2,2.3594246E2,1.7809589E2,1.509674E3,9.372953E2,0E0,0E0,0E0,0E0,0E0,0E0,0E0,0E0],"parents":[2147483647,0,0,1,1,2,2,3,3,4,4,5,5,6,6],"right_children":[2,4,6,8,10,12,14,-1,-1,-1,-1,-1,-1,-1,-1],"split_conditions":[5.4E1,2.4E1,